#define NUM_CLASSES 10
#define NUM_FEATURES 784

double weights[NUM_CLASSES][NUM_FEATURES] = {
    {0.0000000000, 0.0000000000, 0.0000000000, 0.0000000000, 0.0000000000, 0.0000000000, 0.0000000000, 0.0000000000, 0.0000000000, 0.0000000000, 0.0000000000, 0.0000000000, 0.0037683721, 0.0045697757, 0.0029002457, 0.0029002465, 0.0000000000, 0.0000000000, 0.0000000000, 0.0000000000, 0.0000000000, 0.0000000000, 0.0000000000, 0.0000000000, 0.0000000000, 0.0000000000, 0.0000000000, 0.0000000000, 0.0000000000, 0.0000000000, 0.0000000000, 0.0000000000, 0.0179307276, -0.0454586502, 0.0063822057, 0.0256679830, 0.0006374738, 0.0436086338, 0.0001321549, 0.0016679154, 0.0382218620, 0.0457499208, -0.0743927691, 0.0624075681, 0.0033401127, 0.0592544973, -0.0989808420, 0.0065580806, 0.0161480681, 0.0083299659, 0.0048091220, 0.0078475470, 0.0000000000, 0.0000000000, 0.0000000000, 0.0000000000, 0.0000000000, 0.0000000000, 0.0039983401, 0.0106587164, 0.0148603566, 0.0231127851, -0.0186272991, 0.0354119632, -0.0049802520, -0.0683157197, 0.0315599221, -0.0225567615, -0.1482194100, 0.0464053618, -0.0879546724, -0.1340810798, -0.0383641881, -0.1364720680, -0.1104840805, 0.0295720192, -0.0907139369, 0.0072024434, 0.0141800772, -0.0037246612, 0.0019959385, -0.0000005118, 0.0000000000, 0.0000000000, 0.0000000000, 0.0000000000, 0.0074796934, -0.0203506841, -0.0042796484, 0.0488705997, -0.0599611275, -0.0779526372, 0.0441110308, -0.0826407784, -0.0827041903, 0.0276235741, -0.0685220913, 0.0366285855, -0.0366467234, -0.0310409351, -0.0085159383, -0.0165353569, -0.0397106747, -0.0561222401, 0.0129750726, -0.0365070940, -0.0275741393, 0.0118364030, -0.0068943628, 0.0128430090, -0.0282487759, 0.0000000000, 0.0000000000, 0.0097696275, 0.0154362005, -0.0186947909, -0.0103470925, -0.0817453504, -0.0026593911, -0.0190682327, -0.0134010537, 0.0444045692, -0.0664682295, 0.0491814991, -0.0744723804, 0.0825554235, -0.0823041926, 0.0892421288, -0.1179034388, 0.0612601022, -0.0063891860, 0.0098409721, 0.0057065425, -0.0082772620, 0.0001196279, 0.0085277111, -0.0328919370, 0.0257043371, -0.0104409594, 0.0058203728, 0.0000000000, 0.0000000000, -0.0049129644, 0.0103282823, 0.0060074075, -0.0818605872, 0.1241189375, -0.0403824951, 0.0231565035, -0.0232110149, 0.0968215089, 0.0070849583, -0.0711720120, 0.0386567109, 0.0060765344, 0.0533367813, 0.0072374863, 0.0077127920, 0.0215907111, -0.0124427077, -0.0158436969, -0.0286817944, -0.0285609359, -0.0096536566, 0.0078715747, -0.0556619242, 0.0131372487, 0.0003487636, 0.0000000000, 0.0046929227, -0.0254056683, 0.0164612503, -0.0045874593, -0.0347449621, -0.0782730650, -0.0398972326, 0.0561955602, -0.1361411566, -0.0300173896, -0.0289928518, -0.0205206316, 0.0631996624, -0.0166627027, 0.0018215038, 0.0015007516, 0.0026242759, 0.0316734864, -0.0119482638, -0.0021018924, 0.0703524341, 0.0545116654, -0.0132566605, -0.0667017478, -0.0776350027, -0.0291346407, -0.0049554839, -0.0028526914, 0.0016112567, -0.0221207269, -0.0181819921, 0.0023472774, 0.0542181642, 0.0699620610, 0.0072217992, -0.1103185386, 0.0598508131, -0.0117432542, 0.0708676596, -0.0631243093, 0.0239127969, 0.0455875961, -0.0368814071, -0.0136331342, 0.1260407088, 0.0037725706, 0.0679050400, -0.0142345785, -0.0419202949, -0.0508576841, 0.0236861301, -0.0226601136, -0.0082803504, -0.0366588723, 0.0229105649, 0.0297087037, -0.0059475612, 0.0200419690, 0.0490937286, -0.0454191056, -0.1022258968, 0.0099382025, -0.0035256412, 0.0562961733, -0.0093287549, 0.0041114931, -0.0674553273, 0.1044104501, -0.0694237312, 0.0709055969, 0.0253300886, 0.1075708103, 0.0164557024, 0.0436808730, -0.0188904954, 0.0476254095, 0.0486280706, 0.0487423362, 0.0033221438, -0.0447149439, -0.0889355626, -0.0342717245, -0.0038961163, -0.0044954351, 0.0009428155, -0.0358400997, 0.0235247649, -0.0538642109, 0.0502493017, -0.0248150831, 0.0084904707, 0.0018714025, -0.0063009370, 0.0824497049, -0.0689112203, -0.0856428003, 0.1084570414, 0.0070485668, -0.0430843230, 0.0235933727, 0.0616289619, 0.0028342847, 0.0757770985, 0.0492815524, -0.0256860473, -0.0781579254, 0.0215805890, -0.0225179785, -0.0295851749, -0.0378476056, 0.0209994526, 0.0185384584, -0.0918789875, 0.1817164384, -0.2104991709, 0.0613982278, 0.0213943144, 0.0218724665, 0.0120331598, -0.0737772290, 0.0635181043, -0.0364520673, 0.1073253289, 0.0049989072, -0.0583924503, 0.0351042075, 0.0533379153, 0.0560938925, 0.0476972139, 0.1317842053, -0.0282448782, 0.0021206573, 0.0143884000, 0.0922225939, 0.0366780219, 0.0059385497, -0.0143276300, -0.0474900834, 0.0212170534, -0.0193545124, 0.1711270816, -0.2435373969, 0.1400165484, -0.0702149452, -0.0672611677, 0.0197006147, 0.0030691433, 0.0429835636, -0.0864210465, -0.0292126761, 0.0224347519, -0.0894996238, 0.0182671127, -0.0979969946, -0.0784233043, -0.1186536692, 0.0765679616, -0.0909250615, 0.0446159249, 0.0641866345, 0.0360300944, 0.0045425977, 0.0171071518, -0.0191151078, -0.0343780198, -0.0029480788, 0.0171143150, 0.0128677040, -0.0525820568, -0.0178479188, -0.0726358131, -0.0652668078, 0.0417924964, 0.0229075995, -0.0350219693, 0.0195724998, 0.0476561079, -0.0279835527, 0.0189022896, 0.0857193562, 0.0151630494, -0.1083662766, -0.1255424461, -0.0153063164, -0.0154089646, -0.0049337594, 0.0084331169, 0.0545302573, 0.0210703806, 0.0290069075, -0.0191604774, 0.0557550364, -0.0037839073, -0.0871490990, 0.0194169668, 0.0083693343, 0.0206516239, 0.0065610253, 0.0255633599, 0.1032177686, -0.0978603359, 0.0918387212, -0.0052067850, 0.0234800249, 0.0200390788, 0.0794678483, 0.0035831978, -0.0537803031, -0.1786654986, 0.0120888676, -0.1594008494, -0.0839007078, -0.0209907679, 0.0090571285, 0.0161953640, -0.1414735333, -0.0239388708, 0.0527924729, 0.0392826756, -0.0145818289, 0.0099143360, -0.0523359029, 0.0087403820, 0.0031470021, 0.0055703752, 0.0052986607, -0.0513973648, -0.0639094471, 0.0926748549, -0.0065639487, 0.1359430726, -0.0293866940, 0.0150705861, -0.0365729332, 0.0260773148, 0.0951437965, 0.0629820722, -0.3561070565, 0.1150649844, -0.1943780884, 0.0308534913, -0.0173792135, -0.0464298773, 0.0883606022, 0.0492307958, -0.0340867593, 0.0210486125, -0.0189555983, 0.0052024224, -0.0041971956, 0.0018031893, 0.0036800655, -0.0029652565, 0.0023648291, -0.0228788208, 0.0289021010, -0.0108764155, -0.0698540152, 0.0680771012, 0.0502882357, 0.0676045203, 0.0898135824, -0.0618186242, -0.0027982696, -0.0628285357, -0.2380191589, -0.0077623178, -0.1124409018, -0.0213439966, -0.0083793363, -0.0265025158, 0.0198604712, -0.0266166984, 0.0372257193, 0.0160888690, 0.0531821371, -0.0064096867, 0.0063024923, 0.0073868320, 0.0031626092, 0.0048983544, 0.0193887717, -0.0182943230, -0.0157311339, 0.0513353096, 0.0135900322, 0.0353377404, 0.0527985799, 0.0499767558, 0.0186155315, 0.0724883670, -0.0327764031, -0.2370790392, -0.1213217917, -0.0105976260, -0.0717295580, 0.0253935042, -0.0483995182, 0.0021893020, -0.0145620163, 0.0391357008, -0.0698603429, -0.0124277525, -0.0241478635, -0.0486668670, -0.1212812419, 0.0324557669, 0.0000000000, 0.0129503262, -0.0088889812, -0.0099116013, 0.0274638413, 0.0055442585, 0.0588921863, 0.0198164709, -0.0295765694, 0.0439071841, 0.0474328186, -0.0983273975, 0.1241671205, -0.1794649672, -0.0690028932, -0.0612504640, -0.0324372397, 0.0301528066, 0.0132102136, 0.0207640041, 0.0730472627, -0.0461100656, 0.1114797278, -0.0121789690, 0.0340657045, 0.0217315657, -0.0158917172, 0.0154660104, 0.0030114787, -0.0008082960, 0.0116421468, -0.0262735401, -0.0140702172, -0.0135190730, -0.0440718907, -0.0260621389, 0.0785310487, 0.0528799716, 0.0427908946, 0.0506775951, -0.0596501882, -0.1737993400, -0.0353736034, -0.0086273660, -0.0736082940, -0.0188714489, -0.0351403067, -0.0269353530, -0.0955561445, -0.0121531690, -0.0389316936, -0.0177168283, -0.0141163832, -0.0178681599, -0.0103870702, -0.0300709747, 0.0071554561, 0.0030845092, 0.0068007441, -0.0436951132, -0.0376266510, -0.0276964519, 0.0418972934, 0.0545771814, 0.0122291665, -0.0557313995, 0.0290998644, -0.0114663435, 0.1283891769, -0.0783550452, -0.0323874861, -0.0175450871, 0.0123255976, -0.0263778590, -0.0033232464, -0.0684470574, 0.0496133130, -0.0174410533, 0.0375611373, -0.0343971701, 0.0152737845, -0.0454910556, 0.0183753279, 0.0175920022, 0.0000000000, 0.0143097688, -0.0368400630, -0.0021923226, 0.0486552080, 0.0403337267, -0.0326110131, -0.0174447476, 0.0532617164, -0.0336786786, 0.0700235558, 0.0695326830, 0.0199545415, 0.0430719206, -0.1059453538, 0.0416503634, -0.1117014209, 0.0051666221, 0.0540624965, -0.0101362524, -0.0346742635, 0.0488220747, -0.0198496349, -0.0166382062, -0.0131057899, -0.0151987266, -0.0210990617, 0.0093675409, 0.0065746314, 0.0165545974, -0.0222871801, 0.0065210443, -0.0087152713, -0.0326499493, 0.0101504415, 0.0036669550, -0.0727411847, 0.0489956253, 0.0381069460, 0.0793285183, 0.0182310651, -0.0051213391, -0.0170650007, -0.0398985328, 0.0869938393, -0.1999805279, -0.0269503804, -0.0311414120, -0.0612953960, -0.0999215260, 0.0330949879, -0.0775770400, 0.0538348047, -0.0924918131, 0.0573990679, 0.0100959900, 0.0065746328, -0.0096774857, 0.0061739823, -0.0133052661, -0.0415201865, 0.0099631731, 0.0201454797, -0.0181031177, 0.0255016242, 0.0520076727, -0.0209921869, 0.0023094502, -0.0071908996, 0.1610362028, -0.0623984109, -0.0155407482, 0.0222677535, 0.0728097803, -0.1061985901, 0.0522466169, 0.0737748043, -0.0323470300, 0.0713382415, 0.0097823958, -0.0375143923, 0.0231615771, 0.0074347159, 0.0100959913, 0.0000000000, 0.0000000000, 0.0171000581, -0.0122980342, -0.0692589535, 0.0034994531, -0.0020232266, 0.0300299361, -0.0667578169, 0.0209807542, 0.0545850183, 0.0385935586, 0.0398304612, -0.0141056830, 0.0826248746, -0.0032847169, -0.0946765199, 0.0917981134, -0.0800271216, -0.0796105011, -0.0215499352, -0.0731538746, 0.0013295106, -0.0073967976, -0.0132205793, 0.0249515530, -0.0058122798, 0.0000000000, 0.0000000000, 0.0000000000, -0.0182542008, 0.0039607842, 0.0350057226, 0.0137547574, -0.0179960896, -0.0057794185, -0.0207185991, 0.0361583588, 0.0458732623, -0.1190717852, 0.0514266334, -0.0180266953, 0.0137706091, 0.0199311194, -0.1069223218, 0.0860136994, 0.0429168068, -0.0468155331, -0.0514570311, -0.0421041462, 0.0400941066, -0.0405265220, 0.0228855478, -0.0616321262, 0.0076791596, 0.0000000000, 0.0000000000, 0.0000000000, 0.0119706968, 0.0164319274, -0.0437701747, -0.0356049541, -0.0969810665, -0.0048738219, -0.0740981234, -0.0385774554, -0.2745771371, 0.1312220522, -0.2405107057, -0.0958776835, -0.1268628980, -0.1336559674, -0.1030525538, -0.0123584626, -0.2747769192, -0.0700660983, -0.0452420216, -0.0253355101, -0.0384101674, -0.0171130521, 0.0026668071, 0.0100961335, 0.0059729470, 0.0000000000, 0.0000000000, 0.0000000000, 0.0000000000, -0.0007434902, 0.0304157881, 0.0293225031, -0.0071219950, -0.0521744347, -0.0243225460, -0.0542491495, -0.0653778979, -0.1011913769, 0.0063695293, -0.0969150278, -0.0473838348, -0.1124828906, -0.0992734747, -0.1107784480, -0.0636337831, 0.0653973371, -0.0056625388, -0.0175418401, 0.0100089280, 0.0147017961, 0.0000667147, 0.0087361664, 0.0000000000, 0.0000000000, 0.0000000000, 0.0000000000, 0.0000000000, 0.0000000000, 0.0139465645, -0.0095009515, 0.0089032340, 0.0012833199, 0.0159371970, -0.0065202998, -0.0032971566, 0.0099164154, 0.0083256505, -0.0164087068, 0.0048942510, 0.0107450431, 0.0065008983, 0.0357710834, 0.0067083353, 0.0272714689, 0.0103968214, -0.0151913625, -0.0049643495, 0.0090530513, 0.0000000000, 0.0000000000, 0.0000000000, 0.0000000000},
    {0.0000000000, 0.0000000000, 0.0000000000, 0.0000000000, 0.0000000000, 0.0000000000, 0.0000000000, 0.0000000000, 0.0000000000, 0.0000000000, 0.0000000000, 0.0000000000, 0.0041414762, 0.0063410577, 0.0054528243, 0.0054528254, 0.0000000000, 0.0000000000, 0.0000000000, 0.0000000000, 0.0000000000, 0.0000000000, 0.0000000000, 0.0000000000, 0.0000000000, 0.0000000000, 0.0000000000, 0.0000000000, 0.0000000000, 0.0000000000, 0.0000000000, 0.0000000000, -0.0067846595, 0.0071909514, 0.0047391960, 0.0132723636, -0.0039651478, 0.0099175922, 0.0082144941, 0.0172837041, 0.0102350207, 0.0143277270, -0.0046603950, 0.0148427636, -0.0330282659, 0.0010922729, 0.0196051737, 0.0124750413, 0.0057920121, 0.0068479349, 0.0146446759, 0.0062650205, 0.0000000000, 0.0000000000, 0.0000000000, 0.0000000000, 0.0000000000, 0.0000000000, 0.0009894492, 0.0037235539, 0.0099746299, 0.0204569566, 0.0242785798, 0.0239818031, -0.0097074038, -0.0108778817, -0.0105061830, -0.0087570636, -0.0668074657, 0.1178520695, -0.0886763761, 0.0932270678, -0.0028434563, 0.0710309903, -0.0452441575, 0.0646396421, -0.0405805342, 0.0122022139, -0.0036090317, -0.0136335284, 0.0170820831, -0.0053058053, 0.0000000000, 0.0000000000, 0.0000000000, 0.0000000000, 0.0109327445, 0.0101186090, 0.0156710953, -0.1426127093, 0.0140861532, 0.0460760620, -0.0546075131, -0.0355592765, -0.0373124431, -0.1114279645, -0.0319536122, -0.0091643014, -0.0929409819, 0.0012571522, -0.0448623563, 0.0096011825, -0.0893350016, 0.0109581422, -0.0327072731, -0.0116990029, -0.0021702352, -0.0080662969, -0.0067153096, 0.0409386003, 0.0100851869, 0.0000000000, 0.0000000000, 0.0120860648, 0.0329999372, -0.0404910247, -0.0045590604, 0.0368654134, -0.0275674035, -0.1071827274, 0.1069496980, -0.0300122391, 0.0178076182, -0.0132243405, -0.0223085330, 0.0076750746, 0.0149543601, -0.0469704952, -0.0053700052, -0.0076135549, -0.0298565315, 0.0163993339, -0.0085961947, 0.0131264807, -0.0233702211, 0.0117672024, -0.0479902740, -0.1181983115, 0.0363010171, -0.0105628072, 0.0000000000, 0.0000000000, 0.0006080892, 0.0343910526, 0.0058581128, 0.0614698391, 0.0089773102, -0.0436557482, -0.0606338061, -0.0677818845, -0.0291785551, -0.1062700589, -0.0902584030, -0.0350853401, -0.0803755104, 0.0407618147, -0.0428308230, -0.0708932312, -0.0203163343, -0.0136776174, -0.0163243492, 0.0143727268, 0.0468674169, -0.0000481533, 0.0622816693, -0.0546702289, 0.0026952394, 0.0076324931, 0.0000000000, 0.0139841870, -0.0287619167, -0.0019345629, -0.0137688552, -0.1211440701, 0.0928293234, -0.0616180304, -0.0489560127, -0.1019449969, -0.0088011881, 0.0404193934, -0.0601196524, -0.0230716807, -0.0341968653, -0.0988378477, -0.0678005748, -0.0767674268, 0.0104105403, -0.0453907953, -0.0175532395, -0.0144233832, -0.0524785114, 0.0384244608, -0.0647166826, -0.1111525876, 0.0195974395, 0.0161828737, 0.0128094055, -0.0328241571, -0.0223902982, -0.0809381047, 0.1675515014, -0.0454523728, -0.0996487858, 0.1001376226, -0.1379401732, 0.0093306533, -0.0225468600, -0.0998516708, 0.0414088532, -0.0770513577, -0.0023964977, -0.0798160305, 0.0312035002, -0.0194931066, -0.0469003270, 0.0046135468, 0.0580158716, 0.0470356700, -0.0372718249, -0.0201472060, -0.0551552039, -0.0866047326, 0.0560897970, -0.0162227437, 0.0033781120, 0.0054386626, 0.0319630422, -0.0371034552, -0.0094045272, 0.0065213673, -0.1313250884, -0.0350661030, -0.0263099698, -0.1339824643, -0.0019631964, -0.0626447149, 0.0145921326, 0.0214688019, -0.0164649361, 0.0048589208, -0.0908365195, 0.0623695467, -0.0039012749, 0.0219228824, -0.0928666535, -0.0357023615, 0.0266428360, -0.0209982857, -0.1364102773, -0.0698261780, 0.0336553275, 0.0108750660, 0.0019393537, -0.0699564252, 0.0349531678, 0.0194111951, 0.0268075501, -0.1425360145, -0.0034502653, 0.1233999762, -0.0060546998, -0.0084852231, -0.0257763034, 0.0018260009, -0.0191278942, 0.0223466926, 0.0332920523, 0.0708847248, 0.0168987749, -0.0661035369, 0.0307284623, -0.0517940551, -0.0292145974, -0.0114802722, 0.0020492163, -0.0994501334, 0.0468875950, -0.1601536506, 0.0291561595, -0.0090909429, 0.0063343546, 0.0488600123, 0.0193162812, -0.0478280602, -0.0677523188, -0.0630438928, -0.1182863411, -0.0723582587, 0.0373848164, -0.0262112329, 0.0204757474, 0.0252751406, 0.0145606775, 0.0447449812, 0.1007992991, 0.0829696672, 0.0529259012, 0.0552699550, -0.0998227317, -0.0064650158, -0.0693484709, -0.0106012633, 0.0161853054, 0.0075658512, -0.1412087636, 0.0189920884, -0.0391938023, 0.0460587985, 0.0149947098, -0.0041170640, 0.0368116383, -0.0540435359, 0.0514659765, -0.0123957769, -0.0962398863, -0.1080344673, -0.0700721412, -0.0970356940, -0.0206490807, -0.0290790191, -0.0673256158, 0.0512342333, 0.0461837641, 0.1251117522, 0.0317606222, -0.0115961933, 0.0075492619, -0.0153507751, 0.0228537947, 0.0142398527, -0.0813268270, 0.0096825263, -0.0512333210, -0.0325048133, -0.0037453032, -0.0001209256, 0.0109489477, 0.0194287503, -0.1043377345, 0.0313174164, -0.0039378733, -0.0949509072, 0.0882512338, 0.0627066940, -0.0658585704, 0.0361917945, -0.0620318191, -0.0632068802, 0.0211101116, 0.0217337276, 0.1253180852, 0.0905263097, -0.0271924872, 0.0260402021, 0.0204778828, -0.0742221898, -0.0047683477, -0.0361948484, -0.0599715341, 0.0890689356, 0.0441720929, -0.0273200052, -0.0479055244, 0.0033722422, 0.0138264869, 0.0156911545, -0.0203133529, 0.0027766557, -0.0015064547, -0.0539056830, 0.1130642736, 0.0524963175, 0.0018846325, 0.0257651945, -0.1296477280, -0.0659560728, 0.0023257659, 0.0036793731, 0.0873041522, 0.0221250580, 0.0520386069, 0.0693953611, -0.0711279705, -0.0094539858, -0.0074078197, 0.0021229455, -0.0411978857, 0.0418049715, -0.0981839998, -0.0889634528, 0.0051597150, -0.0001332931, 0.0028689827, 0.0076595864, -0.0075626544, -0.0260784733, 0.0982690325, 0.0045192074, 0.0381985312, -0.0807798870, 0.0333868182, -0.0654170543, -0.0843691373, -0.0749781859, -0.0334113061, 0.0108521575, 0.0787245683, 0.0511465823, -0.0128214946, -0.0085591874, -0.1715099504, -0.0092390761, 0.0026407312, -0.0337908944, 0.0309474746, -0.0374045096, 0.1229411073, 0.0064198493, 0.0000462581, 0.0048836733, 0.0040233460, 0.0057845401, 0.0225059535, 0.0350210671, -0.0016581594, -0.1126483728, -0.0739557738, -0.0100767763, 0.0500599220, -0.0450683794, -0.1402212011, -0.0156160458, 0.0597848361, 0.0577756853, 0.0747696136, -0.0202322621, 0.0971405946, -0.0665290321, -0.0016427797, -0.0935942252, -0.0328276433, -0.0303292556, -0.0354857315, -0.0473005443, -0.0155216857, -0.0486095187, 0.0186475271, -0.0018246153, 0.0064788041, 0.0070886041, 0.0036804149, -0.0221461120, 0.0592004322, -0.0170692069, 0.0092162032, -0.0274358961, -0.1061196590, 0.0850712831, -0.0412782436, -0.0068279385, -0.0939437010, -0.0132205943, 0.0650839329, -0.0826744847, 0.0161559988, -0.1470404604, -0.0851827079, -0.0789702277, -0.0433005676, 0.0155358206, -0.0417426464, -0.0605512518, 0.0755672163, -0.0496900067, -0.0210063421, 0.0178328841, 0.0000000000, 0.0117966787, -0.0075747934, -0.0307657509, 0.0198996161, -0.0554386013, -0.0034718840, 0.0668414194, 0.0192976460, -0.0606695247, -0.0007020209, -0.0616206575, 0.0463825880, 0.0765634030, 0.0751899386, 0.0397990942, -0.0014099248, -0.1140157494, -0.0184101455, 0.0323861126, 0.0149827723, -0.0279365012, 0.0937430952, -0.0580961627, 0.0505670382, -0.0807211915, 0.0032364350, -0.0027766333, 0.0000494662, -0.0047324837, 0.0112688307, 0.0012036191, -0.0389868490, -0.0778435062, -0.1766984699, -0.1209465682, 0.0031508935, -0.0137829079, -0.1091277520, -0.0278003524, -0.0133898166, -0.0324719803, 0.0617265644, -0.0578335839, -0.1903549821, 0.0640989205, -0.0053061390, -0.0548689627, 0.0047108148, 0.0068781299, -0.0407014853, -0.1114202627, 0.0700208340, -0.0124224185, -0.0008305786, 0.0072705696, 0.0126534984, 0.0033029263, 0.0017311080, 0.0154243386, 0.0044614192, -0.1636764178, 0.0313353731, 0.0595306523, -0.0692908419, 0.0416016084, 0.0145004845, -0.0427238095, -0.0552225447, 0.0256036256, -0.0431863690, 0.0558098027, 0.0883556813, -0.1258741932, -0.0313301002, 0.0306158993, -0.0054866191, 0.0444977365, -0.0329933654, -0.0199674684, 0.0195437163, -0.0194821666, 0.0045906023, 0.0079067900, 0.0000000000, 0.0003931135, 0.0189543219, -0.0654456166, 0.0310367588, -0.2942586516, 0.0037331571, -0.0607361943, 0.0104910763, 0.0342867631, -0.0097575169, 0.0813810588, 0.0695633179, -0.0230234575, -0.0156786787, -0.1031588435, 0.0262719797, 0.0245833716, 0.1022939869, 0.0588096638, 0.0055408496, -0.0597873259, 0.0425099843, -0.0020652886, 0.0078854851, -0.0204003418, 0.0325068875, 0.0072956281, 0.0130510128, 0.0074284120, -0.0157005572, 0.0524358518, -0.0042805138, 0.0598975526, 0.0669518346, 0.0511657569, 0.0366837416, -0.0430548125, 0.0780058250, -0.0622669887, -0.0137340773, 0.0107606709, 0.0196225748, 0.0320727863, 0.0348115193, -0.0167827622, 0.0517331925, -0.0962006409, -0.0095579556, 0.1135655959, -0.0606755045, -0.2012910174, 0.1468079135, -0.0155122874, -0.0066685913, 0.0095443879, 0.0130510145, -0.0061998032, 0.0065552054, -0.0167126303, 0.0180067633, 0.1366388639, -0.0469155678, -0.0390612796, -0.0029760607, 0.0311426606, -0.0418788889, -0.0237745483, -0.0872836366, -0.0944616279, 0.0264716577, -0.0195348057, -0.0141465854, -0.0022041748, 0.1385292905, -0.0080885920, 0.0658759165, 0.0435984650, -0.1001559384, 0.0481844874, -0.0650787950, 0.0865019841, 0.0009256275, 0.0095443896, 0.0000000000, 0.0000000000, 0.0272831361, -0.0531946687, -0.0562787758, -0.0140606664, 0.0279672641, 0.0193793301, -0.0306593981, -0.0065368310, -0.0418568096, -0.0475491391, 0.0275858708, -0.0054105338, -0.0953489507, 0.0359266881, 0.0133170635, 0.0695241534, -0.1140842887, 0.0090095108, -0.0368519531, -0.0302204951, 0.0935430495, -0.1049849502, -0.0335384032, 0.0049291660, 0.0203260460, 0.0000000000, 0.0000000000, 0.0000000000, 0.0106744383, -0.0024199824, -0.0125009805, -0.0078449901, -0.0065870464, 0.0109601888, -0.0503125482, 0.0072555039, -0.0244536308, -0.0270483751, -0.0381788613, -0.0752597199, -0.0478238261, 0.0013166255, -0.1276996181, 0.0496752337, -0.0266233435, 0.0945664721, -0.0086581097, 0.0048477252, -0.0536174631, 0.0497682760, -0.0056422482, 0.0117790292, 0.0488435640, 0.0000000000, 0.0000000000, 0.0000000000, 0.0049104439, -0.0049043917, 0.0172398446, -0.0622036168, 0.0223858071, -0.0971347249, -0.0551984209, -0.0863218553, -0.1826247418, -0.2085333363, -0.0860868967, -0.0980562499, -0.0348251990, -0.1604803526, -0.1260202259, -0.1006806971, -0.1183132259, -0.0748657854, -0.0308726997, -0.0300182725, -0.0042242509, 0.0090197179, 0.0086003861, -0.0072997559, -0.0299929380, 0.0000000000, 0.0000000000, 0.0000000000, 0.0000000000, -0.0002620733, 0.0123943626, -0.0220548872, -0.0198849521, 0.0012617427, -0.0240663260, -0.0500173348, -0.0152047557, -0.0403361689, -0.1658783900, -0.1165561161, -0.0883691565, -0.0370881332, 0.0135683655, -0.0417453693, -0.0033439851, -0.0003031482, -0.0129711961, 0.0360502555, 0.0058791098, -0.0351004829, 0.0134252861, 0.0049074821, 0.0000000000, 0.0000000000, 0.0000000000, 0.0000000000, 0.0000000000, 0.0000000000, 0.0050310177, 0.0189121630, -0.0310672041, 0.0333264355, -0.0086962402, 0.0144711814, -0.0045035114, -0.0238224066, 0.0436814085, 0.0162348610, 0.0205016015, 0.0250358426, -0.0157875733, 0.0296062503, -0.0579988592, 0.0286308335, -0.0052061546, -0.0016181131, -0.0066711220, 0.0100798239, 0.0000000000, 0.0000000000, 0.0000000000, 0.0000000000},
    {0.0000000000, 0.0000000000, 0.0000000000, 0.0000000000, 0.0000000000, 0.0000000000, 0.0000000000, 0.0000000000, 0.0000000000, 0.0000000000, 0.0000000000, 0.0000000000, 0.0015404414, 0.0051992996, 0.0069078489, 0.0069078498, 0.0000000000, 0.0000000000, 0.0000000000, 0.0000000000, 0.0000000000, 0.0000000000, 0.0000000000, 0.0000000000, 0.0000000000, 0.0000000000, 0.0000000000, 0.0000000000, 0.0000000000, 0.0000000000, 0.0000000000, 0.0000000000, 0.0031878085, 0.0040333074, -0.0076011389, 0.0026785000, 0.0027105557, -0.0097069664, 0.0055938981, 0.0057645325, -0.0193613921, -0.0158622391, 0.0051619507, -0.0093665905, 0.0147750851, -0.0119056045, 0.0040414813, -0.0690413184, 0.0001050682, 0.0012681304, 0.0045187942, -0.0014393991, 0.0000000000, 0.0000000000, 0.0000000000, 0.0000000000, 0.0000000000, 0.0000000000, 0.0022754240, -0.0032888429, 0.0037024593, -0.0095935791, 0.0158769318, -0.0133603921, -0.0033195827, 0.0079839749, -0.0296070584, -0.0045431768, 0.0005112049, -0.0173470305, -0.0164098689, 0.0006017907, -0.0256362645, -0.0127313871, -0.0103405199, -0.0250172323, -0.0238530952, 0.0034011938, -0.0346017831, 0.0223203789, 0.0137348938, 0.0027036122, 0.0000000000, 0.0000000000, 0.0000000000, 0.0000000000, 0.0034181288, 0.0086474368, -0.0050809281, 0.0021323088, -0.0095316776, 0.0118626788, -0.0193047773, 0.0252699871, 0.0059441386, 0.0041766963, 0.0003724928, 0.0158957072, -0.0059880069, -0.0177262875, 0.0085805006, -0.0059028171, -0.0277767059, -0.0004678740, 0.0003588868, -0.0105286091, 0.0231317894, -0.0426876172, -0.0351400813, 0.0140077705, 0.0002550340, 0.0000000000, 0.0000000000, 0.0009411627, -0.0043462881, -0.0069357516, -0.0064479620, -0.0069063570, 0.0252875349, 0.0147828905, -0.0184629540, 0.0317013002, 0.0091651979, 0.0017865603, 0.0283754373, -0.0010241605, 0.0415673899, -0.0157900807, 0.0196695969, -0.0293130833, 0.0003336798, -0.0264159606, -0.0157887771, -0.0211752384, -0.0450316095, -0.0287665781, -0.1075640094, 0.0482783489, -0.0155738852, -0.0038605172, 0.0000000000, 0.0000000000, -0.0006982715, 0.0044317129, 0.0087335004, -0.0033894844, -0.0151669141, -0.0011924026, 0.0206504311, -0.0211684336, 0.0085211709, 0.0215550512, 0.0127230723, 0.0429887115, 0.0030215341, 0.0193766811, 0.0487799035, 0.0163192337, 0.0265437109, -0.0100874683, 0.0037638787, 0.0085997340, 0.0091770377, 0.0286428874, -0.0522738177, 0.0175893914, 0.0037974033, 0.0003326591, 0.0000000000, 0.0044439392, -0.0070952580, -0.0095162418, -0.0086385315, -0.0027189373, -0.0152180594, 0.0091280040, -0.0111932608, 0.0101808531, 0.0248370243, -0.0077140066, -0.0070248933, 0.0178919616, -0.0128621258, 0.0268443465, -0.0033653683, 0.0182781976, -0.0139792803, -0.0028586653, -0.0382537975, -0.0103100520, -0.0128771154, -0.0283402479, -0.0253321516, -0.0371163175, 0.0163950028, -0.0108000721, 0.0041985787, -0.0149410633, 0.0227418351, 0.0280679074, 0.0058155573, 0.0074039255, 0.0352847602, -0.0335046410, 0.0307420515, -0.0282833210, -0.0308592583, 0.0362794390, -0.0183073417, 0.0329117002, 0.0224308299, -0.0309096642, 0.0206447456, -0.0593626053, -0.0089607782, -0.0277979234, -0.0255096012, 0.0170545248, 0.0296239990, -0.0795892930, -0.0572075243, 0.0865601551, -0.0356184426, 0.0189243948, -0.0045620271, 0.0162716341, -0.0119267376, -0.0506104023, 0.0016628257, -0.0253793248, -0.0026819568, 0.0286627274, 0.0121300226, -0.0028144899, 0.0372863755, -0.0054636006, -0.0111885719, -0.0107027327, 0.0289226721, -0.0054969797, -0.0224382707, 0.0261913693, -0.0194907748, 0.0215752386, 0.0323072011, -0.0064765056, -0.0300779192, 0.0592392704, -0.0868466233, -0.1428856749, 0.0104740117, 0.0170159592, 0.0046113612, -0.0196558686, 0.0023011489, 0.0094874370, 0.0014029215, 0.0649856316, -0.0963707240, 0.0176398715, -0.0497821136, 0.0220446763, 0.0095503842, 0.0303515861, -0.0205438666, 0.0004789686, -0.0180646000, 0.0238883238, 0.0447969588, -0.0264154620, 0.0199227975, -0.0016264078, -0.0214719465, -0.0352705783, 0.0323557384, 0.0146052416, -0.0857677084, -0.0107924435, -0.0104758350, 0.0028506921, 0.0037408494, -0.0042865969, -0.0286959607, 0.0466804786, -0.0432503712, 0.0043212722, 0.0835784801, -0.0518571191, 0.0247204290, 0.0074425850, -0.0265894145, 0.0228038253, 0.0131661829, -0.0109379711, 0.0356203444, -0.0440566141, -0.0232167099, 0.0596813813, 0.0357528594, -0.0289134541, 0.0186022478, 0.0182875461, -0.0210824312, -0.0244661578, -0.0112283224, -0.0479874902, 0.0484152722, -0.0094747587, 0.0039521547, -0.0442688813, -0.0381952271, -0.0440283896, 0.0095195339, 0.0226791945, 0.0167180947, 0.0267076452, -0.0867979527, -0.1109005386, -0.0904452141, -0.0862832577, -0.1128802521, -0.1018120563, -0.0757815707, -0.0167765091, -0.0074752457, -0.0514113607, -0.0118576162, 0.0303663374, -0.0482989968, -0.0110808485, -0.0008059520, 0.0476539164, -0.0424777573, 0.0189821993, -0.0552294325, 0.0027257523, 0.0016076985, 0.0185390852, 0.0476824455, -0.0231346387, 0.0229643876, 0.0100626341, -0.1669847642, -0.1435663984, -0.0244950528, -0.0417385983, -0.0442063246, -0.1113766118, -0.0584927000, -0.0397602214, -0.1283976530, -0.0874167117, 0.0064357622, -0.0425498990, -0.0309491382, 0.0613133833, 0.0218321975, 0.0291329680, -0.0089317756, -0.1391076606, -0.0007368252, 0.0178505660, 0.0210668631, -0.0218371595, 0.0011979480, 0.0030817103, -0.0042643561, -0.0018910821, -0.0836735695, -0.0366910956, -0.0143076016, -0.0993939321, -0.0743571334, -0.0421818067, -0.0389114069, 0.0023806461, -0.0227450932, -0.0066093991, -0.0079323300, -0.0255305820, -0.0617177760, 0.0056165265, -0.0124264001, -0.0596548313, -0.0304189139, -0.0340242296, -0.0281959132, -0.0166467765, 0.0485072900, 0.0034374365, 0.0172639521, 0.0096616332, 0.0020487636, -0.0217667169, 0.0157308799, -0.0232970322, -0.0042219927, -0.1415731563, -0.0897507263, 0.0602719682, -0.0302897758, -0.0205044432, -0.0189835288, -0.0017448740, 0.0218198648, -0.0337079778, 0.0242347863, -0.0209902578, 0.0221070642, -0.0353973258, 0.0161521320, -0.0163044542, 0.0174153455, -0.0196114593, -0.0225696723, 0.0164234352, -0.0504875724, 0.0055082928, 0.0237167032, 0.0108242745, 0.0034935425, 0.0024187410, -0.0007707701, 0.0202916268, 0.0202505180, 0.1391710282, 0.0352125633, -0.0725681395, 0.0071546224, 0.0041240209, 0.0100071281, 0.0175005359, -0.0112213746, 0.0357018793, -0.0118616180, -0.0116088221, 0.0142843211, -0.0321674075, -0.0473902074, 0.0273626045, -0.0553472723, -0.0221432851, -0.0264532450, -0.0675620293, 0.0538643237, -0.0009487807, 0.0096034329, 0.0092530866, 0.0079641931, -0.0011826162, -0.0318411366, 0.0078760703, -0.0054145374, -0.0549583278, 0.0599794918, 0.0425524808, -0.0213408984, 0.0171666278, 0.0206260632, 0.0099234426, 0.0407217811, 0.0327386894, -0.0169991988, 0.0083772021, 0.0291977580, 0.0610338051, -0.0328151599, 0.0054333935, -0.0244254297, 0.0646109942, -0.0047404986, 0.0486410900, -0.0165159406, 0.0193405561, 0.0264201140, 0.0018450401, 0.0000000000, -0.0034654757, 0.0283851596, 0.0044524002, 0.0120516544, 0.0336650430, 0.0475489296, -0.0321187457, 0.0319302723, 0.0068849518, 0.0151359520, 0.0169719868, 0.0301578908, 0.0410400735, -0.0005989524, 0.0575089685, 0.0014166935, -0.0331191998, 0.0378424512, -0.0233227308, 0.0015697681, -0.0395209499, 0.0015399953, 0.0005908682, -0.0142097558, 0.0347262160, 0.0024167630, 0.0119794090, 0.0059455644, 0.0032475550, -0.0213535076, 0.0015317667, -0.0014775604, 0.0558538766, 0.0136288873, 0.0605381511, 0.0220589315, -0.0004266273, 0.0329708978, -0.0261442776, 0.0507279765, 0.0320055487, 0.0328069597, 0.0109112585, 0.0359022984, 0.0223150392, -0.0165824230, 0.0223242437, 0.0025999131, 0.0309123154, 0.0163583395, 0.0228714913, 0.0483482351, 0.0086736592, -0.0019989748, 0.0013724474, 0.0001402138, -0.0022717528, -0.0168525384, -0.0256002248, 0.0127607496, -0.0374029978, 0.0060509248, 0.0282719673, -0.0086290849, 0.0492987954, 0.0296888737, 0.0248046698, 0.0040887840, 0.0495309435, 0.0350350962, 0.0192306166, -0.0004802689, 0.0356546319, 0.0103215367, -0.0213579686, 0.0047398962, 0.0022098157, 0.0191065640, 0.0150014396, -0.0192515328, 0.0338003148, 0.0214063746, -0.0010019749, 0.0000000000, 0.0007782271, 0.0197861072, 0.0120364284, 0.0266283303, 0.0330297006, 0.0317414617, 0.0558287990, 0.0523270597, 0.0187576857, -0.0016986793, 0.0660543392, -0.0185706225, -0.0098673178, -0.0091926466, 0.0093362226, 0.0268046198, -0.0556706974, 0.0247537170, 0.0267444024, 0.0133169349, 0.0274893522, -0.0112330267, 0.0064553656, 0.0491128568, 0.0021360752, -0.0181338372, -0.0009726340, 0.0003264818, -0.0026387861, -0.0086156276, 0.0021692231, -0.0414730499, -0.0036511669, -0.0174368229, -0.0001356146, -0.0491977719, 0.0537833789, 0.0166389537, -0.0114645317, 0.0005031218, -0.0109677421, -0.0086273212, -0.0356217253, 0.0167635846, 0.0444344152, -0.0226787978, 0.0560257991, -0.0094666405, 0.0265474932, 0.0094098803, 0.0380306091, -0.0073223117, 0.0192901201, 0.0144848260, 0.0013876928, 0.0003264827, -0.0003995202, -0.0019121188, -0.0063453668, 0.0258488626, 0.0088926292, 0.0168962127, 0.0279778853, 0.0552238623, 0.0211990921, -0.0051619112, 0.0279501918, -0.0001747729, 0.0150625573, -0.0219978886, -0.0292166164, -0.0020878714, -0.0162621197, 0.0443542232, -0.0180441556, 0.0345079792, -0.0046853914, 0.0168849843, -0.0017508557, 0.0195661545, -0.0094017907, -0.0216992711, 0.0013876936, 0.0000000000, 0.0000000000, -0.0083592145, 0.0080698787, 0.0059628885, -0.0177590826, 0.0195125575, -0.0211736093, -0.0276495482, -0.0239567698, -0.0223209699, -0.0265641770, -0.0043443770, -0.0505535526, 0.0095616104, -0.0583480187, 0.0208385056, -0.0210190278, 0.0137173547, 0.0266098102, -0.0053317787, 0.0256823754, 0.0050294265, 0.0166216041, -0.0072406617, 0.0009885602, -0.0010781728, 0.0000000000, 0.0000000000, 0.0000000000, -0.0004277883, -0.0542412458, -0.0040178247, -0.0075208892, -0.0180046856, -0.0291255433, 0.0051141681, -0.0103376756, -0.0182510423, -0.0080589596, 0.0040701665, -0.0379749372, 0.0463935958, -0.0404647120, -0.0311845446, 0.0114989595, 0.0038667262, 0.0077675224, -0.0104996929, 0.0154121045, 0.0080136072, -0.0214637348, 0.0244445812, 0.0280884053, -0.0230328906, 0.0000000000, 0.0000000000, 0.0000000000, 0.0044906766, 0.0090686680, 0.0089908840, -0.2609389559, 0.0624047083, -0.0857212839, -0.0121781184, -0.1241019747, -0.0535512666, -0.0803238824, -0.0551106947, -0.0540079309, -0.0468738753, 0.0464616832, -0.0724754959, 0.0322662519, -0.0241170528, -0.0329389074, 0.0195271369, -0.0194159359, -0.0265418038, -0.0245509013, -0.0380478827, -0.0159125165, 0.0197687091, 0.0000000000, 0.0000000000, 0.0000000000, 0.0000000000, 0.0046817948, 0.0113594383, -0.0050840043, 0.0093478773, -0.0500751074, -0.0409333286, -0.0183891487, -0.0268764534, -0.0930797099, -0.0204493665, -0.0740698266, -0.0784872357, -0.0887449211, -0.0966962423, -0.1184404842, -0.0567521004, 0.0352358084, -0.0344947650, -0.0277821529, -0.0314617366, -0.0004775764, 0.0176565187, 0.0021608077, 0.0000000000, 0.0000000000, 0.0000000000, 0.0000000000, 0.0000000000, 0.0000000000, 0.0074075600, 0.0092403406, 0.0024941020, 0.0034612067, 0.0147206745, 0.0085605825, -0.0159891003, -0.0370307622, 0.0054946523, 0.0203699831, 0.0332411987, 0.0171245295, 0.0388146681, 0.0379831970, 0.0162387077, 0.0019375555, 0.0183454657, -0.0050764820, 0.0119738344, 0.0097277983, 0.0000000000, 0.0000000000, 0.0000000000, 0.0000000000},
    {0.0000000000, 0.0000000000, 0.0000000000, 0.0000000000, 0.0000000000, 0.0000000000, 0.0000000000, 0.0000000000, 0.0000000000, 0.0000000000, 0.0000000000, 0.0000000000, -0.0000216450, 0.0014855787, 0.0025802860, 0.0025802866, 0.0000000000, 0.0000000000, 0.0000000000, 0.0000000000, 0.0000000000, 0.0000000000, 0.0000000000, 0.0000000000, 0.0000000000, 0.0000000000, 0.0000000000, 0.0000000000, 0.0000000000, 0.0000000000, 0.0000000000, 0.0000000000, 0.0023821841, 0.0057866181, 0.0098210989, 0.0012153189, 0.0133202663, 0.0122608579, 0.0093258405, 0.0212723557, 0.0006173420, 0.0205532659, -0.0129143083, -0.0042949588, 0.0105115224, -0.0075862072, 0.0251758849, 0.0108242103, -0.0034706069, 0.0170918499, -0.0044766741, 0.0061931801, 0.0000000000, 0.0000000000, 0.0000000000, 0.0000000000, 0.0000000000, 0.0000000000, 0.0050247020, 0.0072434778, 0.0158754440, 0.0015714701, 0.0018007295, 0.0100645849, 0.0069227654, -0.0250593878, -0.0427101090, 0.0258830838, 0.0055926108, -0.0305514779, 0.0801535266, -0.0853893775, 0.0413572579, 0.0014207302, -0.0394580429, -0.0118435627, -0.0069759715, -0.0037255383, -0.0260851687, 0.0388868650, 0.0255652411, -0.0177238469, 0.0000000000, 0.0000000000, 0.0000000000, 0.0000000000, -0.0138365922, 0.0082728333, -0.0093008574, 0.0391073610, -0.0586048103, 0.0134856703, 0.0278097517, -0.0385689572, 0.0056027200, -0.0021983533, 0.0540588718, -0.0737357998, 0.0678240933, -0.0001744120, 0.0288442821, -0.0088836011, 0.0482888043, -0.0233444171, 0.0725493537, -0.0070152106, -0.0723703161, -0.2090243183, 0.0153760393, 0.0274022042, 0.0031458810, 0.0000000000, 0.0000000000, 0.0025266109, 0.0052356132, 0.0035014076, -0.0080991452, 0.0124499125, 0.0104688258, -0.0109179515, 0.0073863448, 0.0063123606, 0.0290929888, 0.0016325042, 0.0074564101, 0.0154370931, 0.0022946076, 0.0053455241, 0.0268689081, -0.0240803171, 0.0393017594, -0.0287744562, 0.0232478411, -0.0473199022, 0.0688577874, -0.1359906622, 0.0217534388, 0.0195474158, -0.0007732161, 0.0041245821, 0.0000000000, 0.0000000000, -0.0073371249, 0.0050617447, 0.0073234376, 0.0044970877, 0.0152688875, 0.0221413761, 0.0010774923, 0.0111062016, -0.0016734602, 0.0183883470, 0.0272886912, 0.0037113727, 0.0079400690, 0.0027572566, 0.0364663296, -0.0462746028, -0.0136432463, 0.0170172857, -0.0198111071, -0.0341636460, -0.0526267331, 0.0290743031, -0.0404595507, 0.0268575928, 0.0066408007, 0.0006014616, 0.0000000000, 0.0115261443, -0.0011481205, 0.0103201356, 0.0020486347, -0.0159181690, 0.0241007988, -0.0240454621, 0.0110666738, 0.0158847093, 0.0362628121, 0.0214383479, -0.0120782629, 0.0483089504, -0.0191376725, 0.0261026602, 0.0190906741, -0.0084377323, 0.0594157154, -0.0711294299, 0.0148654384, 0.0333948029, 0.0119911687, -0.0323633341, 0.0044179465, -0.1026160318, -0.0340626962, 0.0174833804, 0.0018784530, 0.0125487689, -0.0101905111, 0.0092556159, -0.0018626507, 0.0215036961, 0.0071380625, 0.0022021767, 0.0058701567, 0.0047526311, -0.0156853136, -0.0110861966, 0.0170569964, -0.0214240013, 0.0508367165, 0.0278341772, -0.0191874953, 0.0373519843, -0.0589393325, 0.0138876923, 0.0130395409, -0.0815029632, -0.0602414815, 0.0204801616, -0.0308020646, -0.0468365535, 0.0285091638, 0.0062443016, 0.0036801279, -0.0332522735, -0.0113971025, -0.0073958775, 0.0176924518, -0.0070236464, -0.0084148738, -0.0061699426, -0.0058470674, -0.0480706192, 0.0038677017, -0.0147089301, 0.0248728823, 0.0074887900, -0.0056161167, 0.0035523257, 0.0167223355, -0.0041244018, 0.0652444983, 0.0046386582, 0.0028824401, -0.0047993344, 0.0323319570, -0.0841729653, -0.0671522200, -0.0729883806, 0.0653901959, 0.0099133715, -0.0035227538, 0.0372393497, -0.0015320599, 0.0043255089, 0.0224091200, -0.0066385801, 0.0206658656, -0.0000266355, -0.0166018690, 0.0153864897, 0.0017255489, -0.0648382445, -0.0344282332, -0.0404789226, 0.0062050157, 0.0531882834, 0.0251510112, 0.0271334291, 0.0002769724, 0.0334519252, 0.0524044747, 0.0366597200, 0.0660850288, -0.0356314960, -0.2899247873, 0.0696309141, -0.0247353040, 0.0105731296, -0.0012340731, -0.0227695639, -0.0396484166, -0.0028203371, -0.0224129693, 0.0221173629, -0.0102365068, 0.0334239398, -0.0179626317, -0.0759559408, -0.1038204811, -0.0535179481, -0.0790674176, 0.0502685424, 0.0375542471, 0.0163621842, 0.0459852557, 0.0296497907, 0.0203564730, -0.0029360419, 0.0504055267, 0.0297310336, 0.0172768111, 0.1421669017, -0.1818717122, 0.0685616569, -0.0430484095, 0.0018150125, 0.0005934935, -0.0022370286, -0.0015114651, 0.0452001378, 0.0231797610, -0.0178196768, -0.0016733197, -0.0818393226, -0.0620369818, -0.0530011045, -0.0594211299, -0.0253645006, 0.0059115670, 0.0023035494, 0.0310554674, 0.0511436116, -0.0087107273, 0.0447859813, 0.0234693434, 0.0101442173, -0.0069442539, -0.0476092647, -0.0080434841, 0.0486651450, -0.3156220148, 0.0045953038, -0.0003681343, -0.0000490023, -0.0016657132, 0.0145502042, -0.0327884337, -0.0182836672, -0.0177853253, -0.0094993379, -0.0700622918, -0.0512369523, -0.0482030214, -0.0138737133, 0.0260517775, -0.0397809006, 0.0569068185, -0.0155344113, 0.0730131706, 0.0351484128, 0.0435061863, 0.0017602780, 0.0115505395, 0.0078216731, 0.0369088965, -0.0658258725, -0.0759601156, -0.2646937184, -0.2257612294, 0.1186228272, 0.0206474325, 0.0027717264, 0.0004084735, -0.0022523978, -0.0020985444, -0.0037856619, -0.0246909947, 0.0066658071, 0.0451327946, -0.0104617749, 0.0029547414, -0.0260399942, -0.0474010375, 0.0152521921, 0.0434606140, 0.0106871315, 0.0555465093, -0.0511527194, 0.0460086069, 0.0081074900, -0.0040604188, -0.0217217667, -0.0801100093, -0.0598203661, -0.1701875715, 0.0971544633, 0.1328241283, -0.2070097337, 0.0184062701, 0.0065982538, -0.0005195153, 0.0109023082, -0.0192641308, 0.0411241314, -0.0048926217, -0.0198263855, -0.0674729721, -0.0230947977, -0.0136613418, -0.0022857521, -0.0281104660, -0.0316383820, 0.0683848291, -0.0214086201, 0.0113598206, 0.0029047929, 0.0217070857, 0.0028872744, 0.0208896138, -0.0525988208, -0.0486759112, 0.0469376981, 0.0120828007, -0.0233258255, -0.0336157033, -0.0353205337, 0.0084066353, 0.0007257065, 0.0001417785, 0.0060616307, -0.0112466730, -0.0242286259, -0.0179968154, -0.0066829558, -0.0011700204, -0.0322091596, -0.0390948294, -0.0267986897, -0.0292752314, 0.0017451459, 0.0253149033, -0.0028960430, 0.0016195240, 0.0334945376, 0.0049349610, -0.0011274411, -0.0622907542, 0.0132144652, 0.0934427174, -0.0013101013, 0.0468424160, 0.0796641265, -0.0006889270, -0.1507324363, 0.0807157482, 0.0055288406, 0.0035086989, 0.0038772578, 0.0276793161, 0.0132745348, 0.0367155832, 0.0194087762, -0.0285011270, -0.0158262064, -0.1036757806, 0.0228646265, -0.0221079179, 0.0129473365, -0.0186724573, 0.0264403202, -0.0134741175, -0.0245014304, -0.0655067097, -0.0469648068, 0.0702462781, 0.0354403195, 0.0166486219, 0.0296367985, -0.0136770183, -0.0110952447, 0.0407622484, -0.1963795213, -0.0240342444, 0.0063828267, 0.0000000000, 0.0021452769, -0.0163393654, -0.0019981264, 0.0214076329, -0.0266004725, -0.0329592267, 0.0541018641, 0.0000334634, -0.1267178541, -0.0924473139, -0.0867199193, -0.0213999114, -0.0491957355, -0.0570990435, -0.0676041869, -0.0151564613, 0.0863555592, -0.0229706165, 0.0695721603, -0.0167953710, -0.0007273248, 0.0344045190, 0.0413850471, -0.0252582757, -0.1484935726, 0.0091035689, 0.0021001639, -0.0008424860, 0.0016037292, 0.0159187386, 0.0340887542, -0.0396809667, 0.0386216612, 0.0185859129, -0.0453816985, 0.0145842706, -0.0542516145, -0.0805461447, -0.0699715631, -0.0864196288, -0.0838132669, -0.0892316109, 0.0456110120, 0.0765282189, 0.0035513895, 0.0189066702, 0.0067586737, 0.0187376502, 0.0355067237, 0.0651226804, 0.0048858423, -0.0465127946, -0.0820207638, 0.0156183734, 0.0000907990, 0.0026560148, -0.0066915581, -0.0072093944, 0.0205533450, 0.0099964982, 0.0406037007, -0.0300399180, -0.0110636343, -0.0063390315, -0.0245245921, -0.0065195260, -0.0615813392, 0.0037914424, -0.0514425260, -0.0233159160, -0.0474070162, -0.0024942092, 0.0535084507, 0.0161627284, 0.0394219032, -0.0161192205, 0.0129373607, -0.0324107324, -0.0284694265, 0.0038530948, -0.0897391298, 0.0215148215, -0.0040530616, 0.0000000000, 0.0081506896, -0.0144449662, 0.0437883667, -0.0029713046, 0.0297947722, 0.0131598779, 0.0278577793, -0.0122297230, 0.0481871971, -0.0238103992, 0.0103543819, -0.0503562449, -0.0080434308, 0.0233033163, -0.0240173536, -0.0151045615, -0.0066880074, 0.0391031595, -0.0448851051, 0.0274592296, -0.0037214940, -0.0078817559, 0.0179125880, -0.0140335168, -0.0914131597, 0.0198090924, 0.0013032562, -0.0003164365, -0.0018514665, 0.0142491145, -0.0047271837, 0.0244442017, -0.0119298888, 0.0166675424, -0.0094296848, 0.0432404949, -0.0607757645, 0.0143820765, -0.0400561221, -0.0083222101, -0.0114860648, -0.0185293813, -0.0002804821, 0.0550412776, -0.0394213961, 0.0351984567, 0.0373538101, -0.0073149695, -0.0163687551, -0.0111031846, -0.0228431667, -0.0713720158, 0.0534050902, -0.0080074708, 0.0031099126, -0.0003164355, 0.0043833465, -0.0128642811, 0.0121510840, -0.0021248835, -0.0171832309, 0.0082666131, 0.0063571446, -0.0382504182, 0.0265891262, -0.0108629030, 0.0354492522, 0.0037535688, 0.0002104484, -0.0281415060, 0.0012197169, -0.0016904117, 0.0365334421, -0.0207087256, -0.0020647959, 0.0249631972, -0.0196864128, 0.0078604455, 0.0166941974, -0.0989326377, -0.0301582563, -0.0104199057, 0.0031099135, 0.0000000000, 0.0000000000, 0.0236928651, -0.0017543168, 0.0172915725, 0.0333199393, 0.0194010203, 0.0339191168, 0.0039705128, 0.0327156404, 0.0072546137, 0.0235073450, -0.0211399326, 0.0498190340, -0.0281458800, 0.0021143556, -0.0413586725, -0.0145988800, 0.0545100979, -0.0009977309, -0.0017383988, 0.0104923636, -0.0363897824, -0.0178257891, 0.0332214146, -0.0261948989, 0.0056733103, 0.0000000000, 0.0000000000, 0.0000000000, -0.0237246378, 0.0325420459, 0.0165990533, -0.0272557384, 0.0386685418, 0.0165427251, 0.0127672302, -0.0065370427, 0.0323600939, 0.0267533342, -0.0222431326, 0.0179372289, 0.0120700702, -0.0055791290, 0.0132053243, 0.0178126781, -0.0534933267, -0.0108885969, -0.0109343995, 0.0276357060, -0.0012121234, 0.0501178458, -0.0646132130, 0.0079618268, -0.0135055761, 0.0000000000, 0.0000000000, 0.0000000000, 0.0180817607, -0.0212318944, -0.0171291115, 0.0295798822, -0.0001251474, -0.0125918158, 0.0426183044, 0.0135043559, 0.0298417021, -0.0137598462, 0.0610659267, -0.0020001099, 0.0266038244, -0.0041108018, 0.0088836605, -0.0053183874, -0.0135989573, 0.0309445609, -0.0226122610, -0.0292348048, 0.0208008106, -0.2202062337, 0.0397047116, 0.0055199099, 0.0113504516, 0.0000000000, 0.0000000000, 0.0000000000, 0.0000000000, 0.0025541684, -0.0968714962, 0.0052723891, -0.0153007114, 0.0035600503, 0.0040851994, -0.0496523945, 0.0069568775, -0.0213783759, -0.0369901191, -0.0348468012, -0.0205321453, -0.0447852353, -0.0183868816, 0.0010864232, -0.0125945400, -0.0157047682, 0.0221869083, -0.0081033347, -0.0000576439, -0.0028027606, 0.0023748793, 0.0052243565, 0.0000000000, 0.0000000000, 0.0000000000, 0.0000000000, 0.0000000000, 0.0000000000, 0.0019404159, 0.0116857658, 0.0035090228, 0.0015125254, 0.0054605563, 0.0043024016, -0.0150953212, 0.0039421036, -0.0063031044, -0.0023376802, -0.0023927145, -0.0101167376, -0.0453526795, -0.0227753554, 0.0005974997, 0.0042880824, -0.0065858285, 0.0039118632, 0.0046024376, 0.0036229043, 0.0000000000, 0.0000000000, 0.0000000000, 0.0000000000},
    {0.0000000000, 0.0000000000, 0.0000000000, 0.0000000000, 0.0000000000, 0.0000000000, 0.0000000000, 0.0000000000, 0.0000000000, 0.0000000000, 0.0000000000, 0.0000000000, 0.0071746577, 0.0066593991, 0.0020157792, 0.0020157799, 0.0000000000, 0.0000000000, 0.0000000000, 0.0000000000, 0.0000000000, 0.0000000000, 0.0000000000, 0.0000000000, 0.0000000000, 0.0000000000, 0.0000000000, 0.0000000000, 0.0000000000, 0.0000000000, 0.0000000000, 0.0000000000, 0.0085816366, 0.0085140320, -0.0237727623, 0.0219886219, -0.0043014584, 0.0267709633, 0.0071392185, 0.0114527143, -0.0120830030, -0.0977437826, 0.0481393086, -0.0733097889, -0.0120283727, -0.0010500913, -0.0077556681, 0.0073027846, -0.0450738667, -0.0003237293, -0.0128360543, 0.0035554180, 0.0000000000, 0.0000000000, 0.0000000000, 0.0000000000, 0.0000000000, 0.0000000000, -0.0000449929, -0.0077923384, -0.0072482393, -0.0089166237, 0.0162537136, -0.0636355002, -0.0216504706, -0.0401864791, -0.1207629370, -0.0952215046, -0.0410578921, -0.0051637669, -0.0008465618, -0.0248815765, -0.0677988593, -0.0387077169, -0.0914236952, -0.0109817997, -0.0239226745, -0.0181974500, -0.0006097958, -0.0440978724, 0.0112770226, 0.0019936202, 0.0000000000, 0.0000000000, 0.0000000000, 0.0000000000, 0.0031700066, 0.0037545681, -0.0069982698, 0.0325547080, -0.0564959563, 0.0458268284, -0.0799752807, -0.0880292184, -0.0159373538, -0.0850477851, -0.0473482569, -0.2838145558, -0.0463259511, -0.1037233675, -0.0307645655, -0.0212124666, -0.1186992797, 0.0292322156, -0.0383918378, -0.0065506764, -0.0163909923, 0.0135664107, -0.0463547894, -0.0081798731, -0.0010542060, 0.0000000000, 0.0000000000, 0.0051716282, 0.0143919419, -0.0404239610, -0.0031619983, 0.0210423675, -0.0756066842, 0.0719151681, -0.0554450148, 0.0384977585, -0.1029652941, -0.0217225571, -0.0475729960, 0.0753968668, -0.1039143580, -0.0781586272, -0.0265738031, -0.0299233858, -0.0618406431, -0.0075165418, 0.0262012277, 0.0014550142, 0.0363880418, -0.0003591007, 0.0247697923, 0.0050674787, -0.0054716728, 0.0040335422, 0.0000000000, 0.0000000000, -0.0192690065, 0.0260986310, -0.0138691470, 0.0065238940, 0.0099911945, -0.0115108926, -0.0118932339, -0.0048635952, -0.0127460922, -0.0201554398, 0.0036693914, -0.0746089454, 0.0490652630, 0.0025751185, 0.0612676717, -0.0017533320, 0.0329245708, 0.0356955842, 0.0079632790, -0.0020215059, 0.0043583931, 0.0018602353, -0.0190731467, -0.0041189365, -0.0198921808, 0.0037939587, 0.0000000000, 0.0085911222, 0.0016253851, -0.0359595808, 0.0299407316, 0.0005519350, -0.0300363368, 0.0083739203, -0.0099442951, -0.0292516424, -0.0268203005, -0.0933426532, -0.0724044853, -0.0891703343, -0.1099003570, -0.1256126034, -0.0978830035, -0.0801299952, -0.1027334198, -0.0409296650, -0.0398536625, -0.0027140043, -0.0092916545, 0.0516056589, -0.0127006193, -0.0115675228, 0.0103235621, -0.0164907650, 0.0079326567, 0.0044419264, -0.0790713227, -0.0148495191, -0.0395332741, 0.0645718012, -0.0157327117, 0.0454851446, -0.0214944606, 0.0289136237, -0.0306080082, 0.0387860093, -0.0787818537, -0.0392657475, -0.0837368825, -0.0878135944, -0.0813978548, -0.0143026180, -0.0392793318, -0.0019453676, 0.0000553408, 0.0134035312, 0.0191963198, 0.0446412495, -0.0231816506, -0.0247053092, 0.0006551553, -0.0411781490, -0.0033934563, -0.0662446782, -0.0030063799, 0.0602374302, 0.0163247278, 0.0173323113, -0.0400169220, 0.0316730874, -0.0923683459, 0.0270602368, -0.0414579488, -0.0386459987, -0.0307545840, -0.0370035154, -0.0893962442, -0.0424073566, -0.0961288068, -0.0285419253, -0.0063699242, -0.0309726329, -0.0300560302, -0.0024197759, -0.0651275252, -0.0277820213, 0.0094878227, 0.0082438286, -0.0096919467, -0.0095242632, -0.0015453950, -0.0164067900, 0.0448637336, -0.0436955872, -0.0701101446, 0.0453298134, 0.0030010521, -0.0039371013, -0.0124882129, -0.0356878942, -0.0612208225, 0.0121766529, -0.0817332402, -0.0045435660, -0.1119981984, -0.0721078514, 0.0235359738, -0.0436790311, 0.0141028138, 0.0015791050, -0.0147475545, 0.0192919668, 0.0004807105, 0.0401376523, -0.0786447331, -0.0283713194, 0.0024463452, -0.0111103136, 0.0009828254, 0.0078987226, -0.0079157590, -0.0595410010, 0.0619389189, -0.0787161604, -0.0784225673, 0.0384804773, 0.0275313480, 0.0364448628, -0.0308099811, -0.0157920916, 0.0251174357, -0.0319698090, -0.0985080016, -0.0009414113, -0.0839286648, 0.0347766950, -0.0381130887, -0.0315806811, -0.0192854526, 0.0050032826, 0.0348038108, -0.0679291619, 0.0547550315, -0.0133838513, -0.0478779337, 0.0091116252, 0.0170832738, -0.0840375326, -0.0215258899, 0.0499137207, -0.0485555940, 0.0219209963, 0.0340936908, -0.0494058598, -0.0511349248, 0.0422849902, 0.0484317669, -0.0246334091, 0.0506872812, -0.1410986930, -0.1502673150, 0.0528202391, 0.0507820643, 0.0056805327, -0.0025442212, 0.0630729169, -0.0547289242, -0.0456758896, -0.0588126599, -0.0285678976, -0.1081729645, -0.0120203651, -0.0262807423, 0.0168878623, 0.0164199498, -0.0071338790, -0.0017088924, -0.0134475703, -0.0309365726, 0.0020258332, -0.0287659446, 0.0465232908, 0.0423413077, -0.0161540204, 0.0841127368, 0.0381456793, 0.1740366472, -0.0070818499, -0.0768025250, 0.0345280650, 0.0616113024, -0.0236027161, -0.0142865119, -0.0005506601, -0.0002927952, 0.0323968140, 0.0148158564, -0.0595755864, 0.0663644972, -0.0096144931, -0.0275167037, -0.0000456093, 0.0052919468, 0.0137435247, -0.0075538128, -0.0224707311, -0.0225083262, -0.0226933654, 0.0205353990, 0.0065830715, 0.0497026939, 0.0865805180, 0.0685413157, 0.1013917573, 0.0554205384, -0.0639287119, -0.0406342807, 0.0439941297, 0.0083340047, 0.0532573615, 0.0423124276, -0.0635622531, 0.0299888696, 0.0560266772, -0.0454482271, -0.0055290984, -0.0854239280, 0.0040822107, 0.0266197842, -0.0153769111, 0.0017697736, 0.0335735857, -0.1136555125, 0.0004300647, 0.0505425670, 0.0364591416, 0.0309868957, 0.0939896007, 0.0152494657, 0.0304864473, 0.0275591534, 0.0642265824, 0.0566606783, -0.0609377263, 0.0052064980, -0.0013115030, 0.0686048173, 0.0588699778, 0.0010081949, 0.0927925743, 0.0030744121, 0.0083795599, 0.0461508182, -0.0597786379, 0.0214736604, 0.0180931123, -0.0678004119, 0.0010233459, 0.0019940975, 0.0132574026, 0.0667972993, -0.0148971966, 0.0417447009, -0.0261521503, 0.0118797342, 0.0060319351, 0.0420798010, 0.0499354298, 0.0405290809, 0.0448544055, 0.0440841761, -0.0448983433, 0.0153503400, 0.0437838730, 0.0631896988, 0.0430308473, -0.0304477108, 0.0626600937, -0.0111305317, -0.0697395879, 0.0663873259, 0.0851995889, -0.1478719235, -0.0109472586, 0.0482727466, -0.0136049583, 0.0013726478, -0.0115126605, -0.1193902972, -0.0105265095, -0.0562174994, -0.0103505234, 0.0020202755, 0.0425043484, 0.0699756226, 0.0179898123, 0.0122911491, -0.0306360639, 0.0670150826, -0.0329361739, 0.0525365307, 0.0734747526, 0.0254021204, 0.0534312491, 0.0190264016, -0.0006515916, 0.0904422583, 0.0386474995, -0.0402868839, -0.0329370787, 0.0323973666, -0.0376950774, -0.0223310437, 0.0192828305, 0.0000000000, 0.0088204499, 0.1247327390, -0.0360599639, 0.0298116232, -0.0236534327, -0.0015620568, 0.0371823161, 0.0150806629, 0.0462282524, -0.0221641571, 0.0084183704, -0.0441040778, 0.0292510828, 0.0855600693, 0.0261409387, 0.0524923464, 0.0456694350, 0.0917492480, -0.0471476526, -0.0395842148, 0.0423403654, -0.0453103828, 0.0859429263, -0.1107149389, -0.0123457592, 0.0132348745, -0.0186274311, -0.0065964660, 0.0108424099, -0.1055104406, -0.0260968755, -0.0323943553, -0.0243787353, 0.0328512780, 0.0072085439, 0.0168908403, 0.0647439989, -0.0996946988, -0.0807469690, 0.0992988144, 0.1009271329, 0.0158751586, 0.0168583045, 0.0376996430, -0.0897994751, -0.0602957038, 0.0523934013, 0.0048671632, 0.0196085212, -0.0420155431, -0.0179574098, 0.0715795004, -0.0881219163, -0.0465734065, 0.0291344347, 0.0082469446, -0.0147580578, 0.0242735347, 0.0676261824, 0.0039700514, 0.0865349197, -0.0668062062, -0.0446633850, -0.0321300175, -0.0937041050, -0.0642659852, 0.0700163722, -0.1639234183, 0.0110094930, 0.0772538704, -0.0218735120, -0.0280024761, 0.0170602271, 0.0010892045, -0.0537352599, -0.0656347964, 0.1167194684, -0.1937251396, 0.0107692349, -0.0426902028, -0.0464971669, 0.0256927674, -0.0056459866, 0.0000000000, 0.0119603391, 0.0230514457, -0.0299039927, -0.0020312271, -0.2047204878, 0.0607594462, 0.0015518106, -0.1779051555, 0.0290906062, -0.1248143021, -0.0113373851, -0.0048904310, -0.0796655496, 0.0228202149, 0.0173884901, 0.0694066949, 0.0048933874, 0.0137917666, -0.0292903045, -0.0454818080, -0.0260627575, 0.0223396197, -0.0150504576, -0.0387507657, -0.0358470730, 0.0354645057, -0.0015492621, 0.0036411997, 0.0209581575, -0.0419755033, 0.0276643059, -0.0639847929, 0.2407343652, -0.1561363297, -0.1766911845, 0.1532587780, -0.0512589723, 0.0232775268, -0.0445775469, -0.0336904731, -0.0405608080, -0.0417406414, 0.0286672754, -0.0763659880, 0.0449833497, -0.0245758908, 0.0041452481, 0.1130319637, -0.0782054883, -0.0026823974, 0.0289656764, 0.0059976593, 0.0289608951, -0.0110151707, 0.0055435055, 0.0036412010, -0.0067040215, 0.0905974346, -0.0722314262, 0.0177996099, -0.0952098193, -0.0522575302, -0.0004022847, -0.0614476969, -0.0881254770, -0.0305465882, -0.0167694982, -0.0502263935, -0.0219421975, -0.0676903485, -0.0364575872, -0.0348699951, 0.0141061471, -0.0207926362, 0.0581233152, -0.0984296221, 0.0736057599, 0.0488657202, -0.0199489994, -0.0008925261, -0.0286804676, 0.0186763999, 0.0055435068, 0.0000000000, 0.0000000000, -0.0146202470, -0.0293613359, 0.0017997188, -0.0735154011, 0.0046571508, -0.0075165850, 0.0054850849, -0.0315828824, -0.0043321675, 0.0027369254, -0.0350602294, -0.0051293712, -0.0098311712, 0.0109274990, 0.0327412116, -0.0194852348, 0.0199015489, -0.0259387146, 0.0178642640, 0.0229339524, -0.0673251932, -0.0021909425, -0.0024714754, 0.0063137547, 0.0119991964, 0.0000000000, 0.0000000000, 0.0000000000, 0.0063696443, 0.0323755524, -0.1111260445, 0.0084629145, 0.0699669979, -0.0580717117, 0.0523502289, 0.0505371228, -0.0533850522, 0.0523083424, -0.0300433258, -0.0181423394, 0.0062854275, -0.0363547120, -0.0062789183, -0.0129822368, -0.0211375548, 0.0291900095, -0.0215831258, 0.0024776690, 0.0082609990, -0.0035422301, -0.0051234014, 0.0340188873, -0.0026669773, 0.0000000000, 0.0000000000, 0.0000000000, 0.0054697595, 0.0116688050, 0.0338069438, -0.0266781778, -0.0142404263, -0.0329347765, -0.0285002693, -0.0578934098, -0.0057686639, -0.0537334514, -0.0548564060, -0.0327192902, -0.0508265141, -0.0266662978, -0.0497382781, -0.0407384584, -0.0196140728, -0.0540127834, -0.0013887310, -0.0377802000, 0.0016166417, 0.0071374656, -0.0234106755, -0.0049357316, -0.0043676911, 0.0000000000, 0.0000000000, 0.0000000000, 0.0000000000, 0.0029895510, -0.0126721765, 0.0205695097, 0.0075042433, -0.0974958643, -0.0241580163, -0.0638674479, -0.0517642971, -0.0920855806, -0.0558754308, -0.0921665234, -0.0815155653, -0.0699846145, -0.0594839568, -0.0593465140, -0.0396551615, -0.0266279939, -0.1480432425, -0.0214303808, -0.0173806205, -0.0061260214, 0.0080494053, 0.0073707377, 0.0000000000, 0.0000000000, 0.0000000000, 0.0000000000, 0.0000000000, 0.0000000000, -0.0019144557, 0.0149349902, 0.0015600800, 0.0058665231, -0.0324816024, -0.0076335865, -0.0332413023, 0.0107017188, -0.0316502976, 0.0145449290, -0.1042757331, 0.0022459997, -0.0219508655, 0.0164431391, -0.0152196402, -0.0059733606, 0.0530806970, -0.0027389298, -0.0017131575, 0.0104467989, 0.0000000000, 0.0000000000, 0.0000000000, 0.0000000000},
    {0.0000000000, 0.0000000000, 0.0000000000, 0.0000000000, 0.0000000000, 0.0000000000, 0.0000000000, 0.0000000000, 0.0000000000, 0.0000000000, 0.0000000000, 0.0000000000, 0.0030696530, 0.0036935571, 0.0023128389, 0.0023128394, 0.0000000000, 0.0000000000, 0.0000000000, 0.0000000000, 0.0000000000, 0.0000000000, 0.0000000000, 0.0000000000, 0.0000000000, 0.0000000000, 0.0000000000, 0.0000000000, 0.0000000000, 0.0000000000, 0.0000000000, 0.0000000000, 0.0053592185, 0.0060990013, -0.0106529200, 0.0043900660, 0.0096627936, 0.0360632202, -0.0088601732, 0.0035455555, -0.0096135542, -0.0008592538, 0.0252335067, 0.0036947081, -0.0062798869, 0.0156323501, 0.0053307558, -0.0121400610, 0.0087981664, 0.0060488326, 0.0060569710, -0.0017051481, 0.0000000000, 0.0000000000, 0.0000000000, 0.0000000000, 0.0000000000, 0.0000000000, 0.0021473636, -0.0423398442, -0.0546683492, 0.0133679893, 0.0222012873, 0.0244948648, -0.0432781856, -0.0376985010, 0.0158671958, -0.1213472236, -0.0511386453, -0.1028833748, -0.1077340460, -0.0160334552, -0.0164575501, -0.0152272787, -0.0071896322, -0.0073974230, -0.0306402545, -0.0050710049, -0.0156024753, 0.0209751910, -0.0818900002, 0.0037853568, 0.0000000000, 0.0000000000, 0.0000000000, 0.0000000000, 0.0039503609, 0.0005184731, 0.0356894956, -0.0459113472, -0.0060168314, -0.0478066957, 0.0477700673, -0.0945364718, 0.0788424719, -0.1074723121, 0.0470883037, -0.0412980073, -0.0055506742, -0.0283748341, -0.0358549587, -0.0106742694, -0.0217516386, -0.0113972015, 0.0029774783, -0.0152970740, 0.0078263031, -0.0189997874, -0.0035437781, -0.0002172339, 0.0005840964, 0.0000000000, 0.0000000000, 0.0016295021, -0.0082786074, -0.0084597700, -0.0678182510, -0.0357987333, 0.0001363245, 0.0104417386, -0.0545486255, -0.0047929355, -0.0287457767, 0.0043333896, -0.0079282022, -0.0664676486, -0.0083895229, 0.0059790152, 0.0038603195, -0.0408647635, 0.0258597217, -0.0039496359, -0.0401142510, 0.0286528469, -0.0114124935, 0.0075839456, 0.0200680347, -0.0062699594, 0.0036567928, -0.0054041028, 0.0000000000, 0.0000000000, 0.0018884128, 0.0276317643, -0.0894847930, 0.0072211288, -0.0417976756, 0.0085585265, -0.0090606240, -0.0030053507, -0.0016995488, -0.0107188630, -0.0272890816, -0.0101078032, -0.0276927024, -0.0267628093, -0.0150363797, 0.0194051409, 0.0135212982, -0.0226440024, 0.0558107550, -0.0085484305, 0.0403890149, 0.0019920826, 0.0025229161, 0.0007195287, 0.0054057181, 0.0000988715, 0.0000000000, -0.0001216714, 0.0138359043, -0.0825599937, 0.0357206231, 0.0247084828, -0.0069686428, -0.0106699844, -0.0317832462, 0.0010416215, -0.0118492669, -0.0165897871, -0.0056592313, -0.0260237613, 0.0320200429, -0.0399032799, -0.0241325011, -0.0202506368, -0.0008661507, 0.0295039289, 0.0162274743, -0.0110383586, 0.0115243692, 0.0130499086, 0.0424631099, -0.0076614326, 0.0058663061, -0.0006701145, 0.0036906008, -0.0015179965, -0.0112138865, 0.0094363360, -0.0850426060, -0.0220749956, -0.0035522333, -0.0205375505, 0.0297467205, -0.0225025606, 0.0428275509, 0.0160331641, 0.0087752791, -0.0405846036, 0.0342606895, -0.0706281666, 0.0117253176, 0.0014627517, 0.0147384474, -0.0146085124, -0.0023743776, 0.0245750345, 0.0387358835, 0.0064745491, 0.0184395389, 0.0448214955, -0.0201135263, 0.0079013868, 0.0055950684, 0.0138636323, -0.0196388561, -0.0538738026, -0.0300499820, -0.0013168866, -0.0290869964, -0.0111124174, 0.0204502707, -0.0093679587, 0.0154518860, 0.0216798671, -0.0120875302, -0.0199447005, -0.0315759460, -0.0017878985, -0.0222876277, 0.0033427752, -0.0297819669, 0.0150190502, 0.0259240235, 0.0312333105, -0.0466010123, 0.0586086070, 0.0420880124, 0.0160450814, 0.0099905891, -0.0055349519, -0.0012944405, 0.0062994116, -0.0141651372, -0.1071914696, -0.0540036896, -0.0258838512, 0.0277503888, -0.0177440687, -0.0074549658, 0.0121515469, -0.0093671033, 0.0567775655, 0.0076461618, -0.0126687108, -0.0235256542, -0.0732889520, -0.0655251036, -0.0163882755, -0.0262571490, -0.0051393265, -0.0370901619, 0.0622002998, 0.0604580149, -0.0227636037, 0.0523843123, 0.0278979574, -0.0026957341, 0.0044473274, -0.0000768561, 0.0044693586, 0.0140519160, -0.1031915352, 0.0325311502, -0.0214730996, -0.0460944362, 0.0521390861, 0.0722570990, 0.0587470011, 0.0416947285, 0.0563225588, 0.0592376191, 0.0255501236, -0.0180327180, 0.0134034006, -0.0579419485, -0.0689796735, -0.0830681757, -0.0840433347, -0.0642430214, -0.0218486744, 0.0259579790, 0.0455564645, 0.0807849249, 0.0202981249, 0.0239781960, -0.0113727411, 0.0093489758, -0.0258950697, 0.0674372966, -0.1098219598, -0.0095403548, -0.0076046196, 0.0804186403, -0.0263521261, -0.0065871023, 0.0340577260, 0.0256376443, 0.0293188641, 0.0166489917, 0.0450214522, -0.0176288936, -0.0153470637, -0.0144744546, -0.0295245203, -0.0179562549, -0.0511370687, -0.1601575859, -0.1634621639, -0.1767833296, -0.0372250377, 0.1272709307, 0.0356743019, -0.0209885495, 0.0064475398, 0.0046425882, -0.0061011225, -0.0224192787, 0.0400915831, -0.0007452913, -0.0063974063, 0.0234403910, 0.0172613723, 0.0275104479, -0.0313759442, 0.0318450143, 0.0386556576, 0.0230621859, 0.0495706388, -0.0345697705, 0.0260324253, -0.0420057627, -0.0451309017, -0.0458351360, -0.0632900779, -0.0096325520, -0.0936848558, -0.1355960332, -0.1538982761, -0.3909697429, 0.0844730718, 0.0552743835, -0.0133703993, 0.0020770344, -0.0089077732, -0.0427743515, -0.0146833487, 0.0130231235, 0.0339568752, -0.0207293956, 0.0411402469, 0.0035008634, 0.0337764890, 0.0004866762, 0.0312119194, 0.0519441066, 0.0175641889, -0.0584831001, -0.0168540848, -0.0649108783, -0.0458329439, -0.0115083853, 0.0198070134, 0.0023129129, -0.0212855652, -0.0304170809, -0.1577011102, -0.0567571085, -0.0631967759, 0.0264884340, -0.0000795848, 0.0081351613, -0.0177507393, 0.0145264418, 0.0314557518, -0.0219226657, -0.0062626288, -0.0367158148, -0.0290389304, -0.0262842220, 0.0008949604, 0.0651990257, -0.0110951556, 0.0387210689, -0.0123422903, -0.0244494627, 0.0124722866, -0.0507484259, -0.0327648275, -0.0336412085, -0.0623453271, 0.0018940785, -0.0432568529, 0.0215429008, -0.0023558428, 0.0945601689, -0.1796376176, -0.0296286634, 0.0025823122, 0.0070657755, 0.0049042319, -0.0093935266, -0.0397997439, 0.0676145703, -0.0433626503, 0.0128870551, -0.0248829565, 0.0480417332, 0.0350183131, -0.0089816859, 0.0162793531, 0.0162440159, -0.0484459445, -0.0517091838, -0.0405002223, -0.0164421093, -0.0500262846, 0.0537572686, -0.0199299285, -0.0121840416, -0.0125254291, -0.0550178529, 0.0140826346, 0.0458881222, 0.0196739842, -0.0158135255, 0.0012535664, -0.0049900801, 0.0046181694, 0.0230481038, 0.0283863708, -0.0353117617, 0.0146928849, -0.0689415837, -0.1024837283, -0.0601054393, -0.0345122062, 0.0143457737, -0.0253428619, 0.0243397278, 0.0056726726, -0.0565691273, -0.0095365241, -0.0674017519, -0.0092430896, -0.0710813631, -0.0089887449, 0.0058810996, -0.0443590733, 0.0822117475, -0.0017266168, -0.0256626734, -0.0138312182, -0.0914486000, 0.0068064009, 0.0000000000, 0.0088534184, -0.0317025591, -0.0148871326, 0.0009108136, -0.0149329721, 0.1159236422, -0.0367841781, -0.0306034039, -0.0793174721, -0.0844715709, -0.0609769545, -0.0972969899, -0.0734867363, -0.0755912290, -0.0225807785, 0.0094980696, -0.0042023075, 0.0592068708, -0.0064278153, 0.0151325906, 0.0709171415, -0.0617139112, 0.0200621716, 0.0479420444, -0.0457455618, 0.0045314847, -0.0013463177, 0.0008392108, -0.0071343203, -0.0352803927, -0.0102783119, 0.0258627422, 0.0183782164, 0.0242142723, 0.0288854687, -0.0351987789, -0.0089816865, -0.0758047540, -0.0540102458, 0.0188736196, -0.0047292298, 0.0300754851, -0.0295050422, -0.0159727501, 0.0454190263, -0.0420582526, 0.0132701777, -0.0013445598, -0.0400913244, 0.0643450689, -0.0000400045, -0.0069376878, -0.0429214595, 0.0174739302, -0.0045905664, 0.0048964329, -0.0076146014, 0.0162381470, -0.0049810486, 0.0249106834, -0.0311548288, 0.0419322784, -0.0086260615, 0.0560380383, -0.0224357468, 0.0280456234, -0.0233346421, 0.0014734984, 0.0097351428, -0.0256506744, 0.0647916758, -0.0028807457, -0.0425641934, 0.0227105643, -0.0154225677, 0.0367393199, 0.0317286908, -0.0267783919, -0.0228392495, 0.0543878521, -0.0448773132, -0.0068849884, 0.0026748638, 0.0000000000, 0.0061059397, 0.0031130340, -0.0144945606, -0.0060104814, 0.0149126687, 0.0014886711, -0.0168540367, 0.0248922016, 0.0443483552, -0.0106204066, 0.0709536785, 0.0005237928, 0.0206975022, -0.0402862764, -0.0420604845, 0.0149688561, 0.0360309434, -0.0053067559, 0.0246997810, -0.0331720667, -0.0474800672, 0.0542309057, 0.0264211196, -0.0573243718, 0.0356764809, 0.0003665139, 0.0033925580, 0.0018340369, 0.0009927047, -0.0162208967, 0.0044632351, 0.0179399411, 0.0083185710, 0.0146221633, 0.0008488381, 0.0068282547, 0.0201592118, 0.0146123733, 0.0343854564, -0.0303062611, 0.0095204458, 0.0095689417, 0.0084753689, -0.0320006358, 0.0271740748, -0.0136558509, 0.0001869528, 0.0586574763, 0.0554169431, 0.0176999385, 0.0057872331, 0.0150485521, -0.0099918896, -0.0112948124, 0.0033861797, 0.0018340378, 0.0028725343, -0.0273673274, -0.0355716487, 0.0034121134, -0.0187383821, -0.0401039668, 0.0342845106, -0.0047075766, 0.0329255360, -0.0246572930, 0.0159044504, 0.0431054361, 0.0143473856, -0.0001409716, -0.0140707519, 0.0195368364, -0.0594830354, 0.0726436315, 0.0173673433, -0.0071933958, -0.0121476616, 0.0141336489, 0.0059452496, 0.0028187276, -0.0004786026, -0.0052966031, 0.0033861805, 0.0000000000, 0.0000000000, 0.0228385350, 0.0098244229, 0.0113363056, 0.0278149378, 0.0151521287, -0.0531894506, 0.0261839623, -0.0277487697, 0.0436837788, -0.0073819943, 0.0231029706, -0.0224015683, 0.0404239019, -0.0286924168, 0.0408588421, -0.0179894417, -0.0545117562, -0.0198259506, 0.0355065672, -0.0018405692, -0.0054731878, 0.0174444754, -0.0550297494, 0.0451006454, 0.0004834413, 0.0000000000, 0.0000000000, 0.0000000000, -0.0906541130, -0.0025893002, -0.0274249963, 0.0134970154, -0.0236851064, 0.0196050852, -0.0211802728, 0.0511661687, -0.0191943685, 0.0093339981, -0.0114404517, 0.0169312291, 0.0138879080, 0.0098787187, -0.0272194021, 0.0175249938, 0.0214401052, -0.0279276264, 0.0028567020, -0.0116873527, 0.0059638619, -0.0366400521, 0.0158504797, -0.1102078791, -0.0050278502, 0.0000000000, 0.0000000000, 0.0000000000, 0.0149397119, 0.0056592413, 0.0139450904, -0.0363154752, 0.0067482297, 0.0069798506, -0.0219081110, 0.0201727856, -0.0206131573, 0.0195660402, 0.0017032274, 0.0115547464, -0.0274784724, 0.0198957628, -0.0070912074, -0.0029135911, -0.0035279810, 0.0204640350, -0.0567282382, 0.0048588498, 0.0156547598, 0.0025506426, 0.0304605201, 0.0068009458, 0.0045224164, 0.0000000000, 0.0000000000, 0.0000000000, 0.0000000000, 0.0038400267, 0.0029046764, -0.0182682877, 0.0176559683, -0.0955286723, -0.0561398191, -0.0005428344, -0.0291826957, 0.0009807941, -0.0324107031, 0.0001145627, -0.0409304755, -0.0104588839, -0.0116118287, -0.0171404915, -0.0249401157, -0.0248528940, 0.0420446819, -0.0266964518, -0.0068917066, -0.0007572510, -0.0067384484, 0.0051496151, 0.0000000000, 0.0000000000, 0.0000000000, 0.0000000000, 0.0000000000, 0.0000000000, 0.0029397016, 0.0249643954, -0.0055992406, 0.0199875328, 0.0005040904, -0.0188928112, 0.0086721376, -0.0013959260, 0.0011147559, -0.0165814425, -0.0294353652, -0.0099161361, -0.0226366889, -0.0043422766, -0.0174753927, 0.0120441892, -0.0027147159, -0.0174786224, 0.0041837260, 0.0054145101, 0.0000000000, 0.0000000000, 0.0000000000, 0.0000000000},
    {0.0000000000, 0.0000000000, 0.0000000000, 0.0000000000, 0.0000000000, 0.0000000000, 0.0000000000, 0.0000000000, 0.0000000000, 0.0000000000, 0.0000000000, 0.0000000000, 0.0095240804, 0.0070630264, -0.0003766959, -0.0003766953, 0.0000000000, 0.0000000000, 0.0000000000, 0.0000000000, 0.0000000000, 0.0000000000, 0.0000000000, 0.0000000000, 0.0000000000, 0.0000000000, 0.0000000000, 0.0000000000, 0.0000000000, 0.0000000000, 0.0000000000, 0.0000000000, 0.0069758679, 0.0081419726, 0.0246785442, -0.0197573595, 0.0132456646, 0.0039458622, -0.0026665983, 0.0021209860, 0.0039271393, 0.0090872306, -0.0105513214, 0.0086453538, -0.0095988757, 0.0060900321, 0.0180929286, 0.0113374545, 0.0113789092, 0.0151144166, 0.0136175113, 0.0060575305, 0.0000000000, 0.0000000000, 0.0000000000, 0.0000000000, 0.0000000000, 0.0000000000, 0.0080184014, -0.0086815092, 0.0196436322, 0.0085031125, 0.0006086316, -0.0039425073, 0.0037583656, -0.0039338724, 0.0296269722, -0.0078683243, 0.0255487710, 0.0155907594, 0.0111218994, -0.0005400598, 0.0299265002, 0.0047627048, 0.0229217470, 0.0078473158, 0.0117991976, 0.0350602303, -0.0001149005, 0.0352698987, -0.0135490286, -0.0028056873, 0.0000000000, 0.0000000000, 0.0000000000, 0.0000000000, 0.0034627434, 0.0040281060, 0.0107151636, -0.0214852346, 0.0178236331, 0.0195004351, -0.0032247196, -0.0017862591, -0.0052993978, 0.0082868465, -0.0190514197, 0.0041252679, -0.0098731713, 0.0254464208, -0.0141632870, 0.0114820891, 0.0130047179, 0.0309416100, -0.0028268592, 0.0060719529, 0.0053785731, -0.0024683120, 0.0286762124, -0.0113316041, 0.0127942935, 0.0000000000, 0.0000000000, 0.0080556323, -0.0136744939, -0.0077649099, 0.0000243978, 0.0196627959, -0.0521168783, 0.0186820449, 0.0050977320, -0.0367385602, -0.0050629873, -0.0244182194, -0.0583168982, -0.0197877382, -0.0181753731, -0.0557105031, -0.0206787661, 0.0239541677, -0.0572658345, -0.0054895337, -0.0039354111, -0.0147899686, 0.0026926781, 0.0004470395, -0.0407741893, 0.0067653593, -0.1237485121, 0.0529520687, 0.0000000000, 0.0000000000, 0.0044459579, -0.0302843140, -0.0009692819, -0.0306296903, 0.0419026578, -0.1036786837, 0.0879785814, -0.0974267098, 0.0593308549, -0.1055112026, 0.0335252572, -0.1132683046, -0.0200740307, -0.0411070277, -0.0656247683, -0.0423375664, 0.0526672322, 0.0121052689, 0.0461789120, 0.0305607544, -0.0409720616, 0.0319127785, 0.0346580682, -0.0221578677, 0.0023716243, -0.0163493275, 0.0000000000, -0.0013724663, -0.0025953358, 0.0137114143, -0.0105081010, -0.0043022833, -0.0206875894, 0.0294388872, -0.0467492903, 0.0185477781, -0.0782940655, -0.0282397062, -0.0129861101, -0.0073404654, -0.0788579541, -0.0034130170, -0.0709215592, -0.0080431616, -0.0986826659, -0.0635624800, -0.0824185414, -0.0417334317, 0.0179081133, 0.0019370849, -0.0868705692, 0.0348076914, -0.0296445655, 0.0389131468, 0.0024915902, 0.0207311348, -0.0075353991, -0.0703903858, 0.0221421360, 0.0877921777, -0.1096183084, 0.0665632330, -0.0473176427, 0.0311423286, -0.0018660738, -0.0390666138, -0.0510851577, -0.0597386878, 0.0033403118, -0.0339720061, -0.0644498317, -0.0358964654, -0.0291347248, -0.0230043807, -0.0459675573, -0.0166549246, -0.0949449032, -0.0645937884, 0.1194310059, -0.0071523449, -0.0172949795, -0.0236043317, 0.0044382834, 0.0046411045, 0.0148631339, -0.0566945499, -0.0797232470, -0.0400786691, -0.0130052779, -0.0238805052, -0.0769344498, -0.0681543257, -0.0249188364, 0.0017844628, -0.0466925336, -0.0183020274, -0.0606239881, -0.0735970987, -0.0282207836, -0.0510802956, -0.1383181875, -0.1191984939, -0.1603758019, -0.0558032613, -0.0149839629, -0.1366709848, -0.1595882754, -0.0298784831, 0.0489781125, -0.0012514951, 0.0009715711, 0.0059962779, 0.0561444358, -0.0285086421, 0.1173021169, -0.0260109197, -0.0552989814, 0.0678424985, 0.0677301289, 0.0011217192, -0.0308121956, -0.0268055679, 0.0077657049, -0.0866712662, -0.0042316283, -0.0928301061, -0.1017455033, -0.1328538775, -0.1055138206, -0.0639417870, -0.0125078597, -0.0107821149, -0.0701122346, 0.0397844753, -0.0396536346, -0.0644948457, -0.0581041098, 0.0190602131, 0.0020609911, 0.0152295358, -0.0490900286, -0.0506517933, -0.0420468886, -0.0644608551, -0.0168042211, -0.0569116491, -0.0152232936, -0.0444221333, -0.0393192521, -0.0054921330, -0.0509566280, 0.0122158773, -0.0485495341, -0.0169774481, -0.0453213326, -0.1036385702, 0.0065326215, -0.1465101352, -0.0190670460, -0.0597715946, -0.0993016145, -0.0002140534, 0.0352863755, -0.0309655305, 0.0146873731, -0.0829496829, 0.0081608019, -0.0028487237, 0.0799377273, 0.0170337529, 0.0016329397, 0.1659485540, -0.0204120371, 0.0270347067, -0.0327423631, 0.0080604088, 0.0296131230, -0.0616083129, 0.0195196361, 0.0532789957, 0.0086810502, -0.1147120854, 0.0415989136, -0.0758276377, -0.0499102335, 0.0560303439, -0.0492611767, 0.0263452576, -0.0161381428, 0.0559425538, -0.0174143255, -0.0142901033, -0.0241812093, 0.0627593655, 0.0061901281, 0.0038339644, -0.0540947434, -0.0524724051, -0.0340782156, -0.1364478987, 0.0056346938, -0.0059997202, 0.0686174043, 0.0473466240, -0.0622787554, 0.1017621709, 0.0061161641, 0.0060739905, -0.0008361957, -0.0629916393, -0.0128587331, 0.0454524233, -0.0155382427, -0.0595577501, -0.0469865460, 0.0284112450, 0.0592656565, -0.0083182487, 0.0079766735, 0.0117324834, -0.0238744994, -0.0482057844, 0.0027034404, -0.0014571121, -0.0147450333, -0.0655614916, 0.0192998631, 0.0844465721, 0.0951272011, -0.0228268657, -0.0344551559, 0.0001651582, 0.0880612516, -0.0409944066, 0.0433316588, 0.0045839945, -0.0336983079, 0.0953477794, -0.0462644958, -0.0218157082, -0.0198095595, 0.0080294935, 0.0019171553, 0.0626049610, -0.0685952681, 0.1058041318, 0.0086130808, -0.0255942024, -0.0158800545, 0.0157547971, -0.0000169789, -0.0090462042, 0.0690963759, 0.0881818119, -0.0641346782, -0.0083298560, 0.0102290780, 0.0421522120, 0.0517951072, 0.0431172979, 0.0168625338, 0.0898395419, 0.0221842471, -0.0135576750, -0.0202319723, -0.0297441547, 0.0582528642, -0.0557125207, -0.0023880506, 0.0030614854, -0.0099952044, -0.0454863870, 0.1126091848, -0.0168910809, -0.0051356526, 0.0215998888, -0.0156866913, -0.0258979577, 0.0014250612, -0.0010777350, -0.0338073414, -0.0199426654, -0.1208380809, -0.0322370195, -0.0091255262, 0.0381281949, 0.0157807256, 0.0159123617, 0.0334841098, 0.0298362740, 0.0195993429, -0.0038720135, 0.0824361910, 0.0207860223, -0.0283243258, 0.0300144387, -0.0037104170, -0.0589621650, 0.0910008704, 0.0712334988, -0.0747411921, 0.0339756623, -0.0359363061, 0.0175438281, -0.0143816812, 0.0066715066, 0.0077558032, 0.0057706126, 0.0371569654, -0.0621820406, 0.1267720064, -0.0313501118, 0.0421471699, 0.0454587801, -0.0741958377, 0.0936891983, -0.0277316432, 0.1186695407, -0.0515282529, -0.0297824639, -0.0084237403, 0.0254357573, 0.0061376392, -0.0571230811, -0.0138280763, 0.0293883687, -0.0608877915, -0.0113906622, 0.0376673047, -0.0502011400, 0.0177720987, -0.0182224052, -0.0172109816, -0.0012329201, 0.0000000000, 0.0083877442, -0.0015704865, 0.0533635554, -0.1976879366, 0.0877502482, -0.0662037461, -0.0497079383, 0.1352902316, -0.0282622213, 0.0998359083, 0.0815641717, -0.0097091112, 0.0173278299, 0.0779622821, -0.0680220224, -0.0468277760, 0.0298474012, 0.0203903237, 0.0398155476, 0.0669209114, -0.0255145369, 0.0269738980, 0.0189904411, 0.0138878454, -0.0169711692, -0.0223837632, -0.0117962865, 0.0078856943, 0.0027809033, -0.0126954124, -0.0053648287, 0.0298730477, -0.0942091833, -0.0283383545, 0.1209112848, -0.0582996547, 0.0627426779, 0.0277792534, 0.0093436033, 0.1096296712, 0.0193738345, -0.0293908892, 0.0392187195, 0.0497407381, -0.0020462242, 0.0555772147, -0.0389745600, -0.0323776176, 0.0253874582, -0.0404705288, 0.0193328964, -0.0618244337, 0.0216635414, 0.0166649508, 0.0016972153, 0.0008421226, 0.0077086693, 0.0815286030, -0.2800549241, -0.0080353894, 0.0215367665, 0.0144942464, -0.0447503438, 0.0268822986, 0.0305170209, 0.0499290809, 0.0987069231, 0.1013542189, 0.0070740774, 0.0360326723, 0.0445046907, 0.0158942282, 0.0446795372, -0.0007949016, 0.0499311971, 0.0234089949, 0.0049976659, 0.0249693172, -0.0099318256, -0.0048241903, -0.0219697021, -0.0412255392, 0.0025398737, 0.0000000000, -0.0036909981, 0.0248450306, -0.0277727570, 0.0559841033, -0.0033063155, -0.0559826247, 0.0207989602, -0.0286018603, 0.0219151127, 0.1008732710, -0.0274982631, 0.0899395638, -0.0235070408, 0.1260811509, 0.0013772064, 0.0655378549, -0.0476491888, 0.0383068317, -0.0155233446, -0.0239013933, -0.0001865586, -0.0423769931, 0.0142451262, -0.0442324195, 0.0063690444, 0.0134438514, 0.0053188860, 0.0028026893, 0.0181795092, -0.0131495038, -0.0160518944, -0.0445239701, -0.0739931942, -0.0817645369, 0.0048742811, 0.0362101379, -0.0029608106, -0.0098152845, 0.0777386238, 0.1014519719, 0.0814650947, 0.1009368691, 0.0436966512, 0.0124962248, 0.0762769733, 0.0250110788, -0.0012664356, 0.0606594371, -0.0938905369, 0.0408279963, -0.0406420647, 0.0482857422, -0.0321985437, 0.0087957270, 0.0035861379, 0.0028026906, 0.0054147683, -0.0233736855, -0.0227056716, 0.0155690209, 0.0076008052, -0.2004866120, 0.1188831575, -0.0335039818, 0.0198493927, 0.0651817367, -0.0177796883, 0.0197264258, 0.0183885464, -0.0250366335, 0.0913169482, -0.0032445406, 0.0564278216, -0.0360982834, -0.0111047259, 0.0218284552, 0.0550232694, -0.0104813028, -0.0102605856, -0.1325283186, -0.0271830065, 0.0257584602, 0.0035861391, 0.0000000000, 0.0000000000, 0.0252041252, 0.0182914978, 0.0428340519, 0.0591478422, -0.0154540349, -0.0919248958, -0.0395095940, 0.0241313737, -0.0808749578, -0.0593884563, -0.0234999692, 0.0079734129, -0.0224948709, -0.0234226095, 0.0175135050, -0.1005280995, 0.0875905533, 0.0136962539, -0.0027765899, -0.0338592058, 0.0091014419, -0.0773045110, 0.0261333855, -0.0608007422, -0.0514359065, 0.0000000000, 0.0000000000, 0.0000000000, -0.0197396249, 0.0258717988, 0.0232340753, 0.0061669569, 0.0013533787, -0.0699437976, -0.0984211218, -0.0385781822, -0.0936983474, -0.1204199271, -0.0315390979, -0.0879871088, -0.0325051044, -0.0990572445, 0.0401443998, 0.0028612620, 0.0012257612, -0.1054571533, -0.0080967723, -0.0658485858, 0.0001909345, 0.0261422008, -0.0032703054, 0.0116083090, -0.0002787299, 0.0000000000, 0.0000000000, 0.0000000000, 0.0102059792, 0.0034171815, 0.0059257115, 0.0322712671, 0.0472386022, 0.0512633382, 0.0181083297, -0.0102197255, 0.0481828489, 0.0392262606, 0.0047328491, -0.0854262900, -0.0805156927, -0.0397865650, -0.0909511385, -0.0201666679, -0.0156332336, 0.0197566152, 0.0084762584, 0.0516478447, 0.0255178809, 0.0094030035, 0.0042276289, 0.0077946417, -0.0015196435, 0.0000000000, 0.0000000000, 0.0000000000, 0.0000000000, -0.0052713073, 0.0209865352, -0.0093427070, 0.0235789628, 0.0584906086, 0.0074491042, 0.0532295717, -0.0196421783, 0.0026527076, 0.0999079697, 0.0992438865, 0.0674025115, -0.0422933574, 0.0598427589, 0.0110656577, 0.0126348939, 0.0116924887, 0.0074391538, -0.0050202657, -0.0179894326, 0.0056896499, 0.0011824989, 0.0081214312, 0.0000000000, 0.0000000000, 0.0000000000, 0.0000000000, 0.0000000000, 0.0000000000, 0.0022795566, 0.0079711641, 0.0106745637, 0.0051228413, 0.0265747956, 0.0187739979, -0.0229522623, 0.0356434994, 0.0331634115, 0.0065200253, 0.0196171329, 0.0247640622, 0.0520900528, -0.0194984303, 0.0254384168, -0.0139877260, 0.0232883728, 0.0031439342, 0.0040575690, 0.0088914723, 0.0000000000, 0.0000000000, 0.0000000000, 0.0000000000},
    {0.0000000000, 0.0000000000, 0.0000000000, 0.0000000000, 0.0000000000, 0.0000000000, 0.0000000000, 0.0000000000, 0.0000000000, 0.0000000000, 0.0000000000, 0.0000000000, 0.0091464622, 0.0070137040, 0.0000345561, 0.0000345567, 0.0000000000, 0.0000000000, 0.0000000000, 0.0000000000, 0.0000000000, 0.0000000000, 0.0000000000, 0.0000000000, 0.0000000000, 0.0000000000, 0.0000000000, 0.0000000000, 0.0000000000, 0.0000000000, 0.0000000000, 0.0000000000, 0.0080652822, -0.0029047035, 0.0149956357, -0.0091031172, -0.0141468237, -0.0078158192, 0.0102861123, 0.0349211149, -0.0453279932, -0.0200940360, 0.0328370086, -0.0167752301, 0.0055785482, 0.0138388394, 0.0146713390, -0.0059019567, 0.0104664768, -0.0091075078, 0.0127989492, -0.0045657089, 0.0000000000, 0.0000000000, 0.0000000000, 0.0000000000, 0.0000000000, 0.0000000000, 0.0115787244, -0.0073757403, 0.0131378822, 0.0123072610, -0.0101305577, 0.0092736913, 0.0356343025, 0.0488337287, -0.0157506937, -0.0317079660, 0.0778878919, 0.0036303849, 0.0379376756, 0.0372190803, -0.0096547110, 0.0200839776, 0.0414617423, 0.0165640044, 0.0477328772, 0.0101093698, -0.0015568316, 0.0056073209, 0.0093307988, 0.0192302624, 0.0000000000, 0.0000000000, 0.0000000000, 0.0000000000, 0.0100381191, -0.0129687404, 0.0306524584, -0.0311187338, 0.0570472000, -0.0290407857, 0.0241022301, -0.0508308438, 0.0516640034, -0.0607838159, -0.0817018410, -0.1501481933, 0.0156790602, -0.1051906146, 0.0140703955, -0.0013387922, -0.0471375357, 0.0702095218, -0.0070698725, -0.0419511694, 0.0654658783, -0.0293428726, 0.0067236614, 0.0135239104, 0.0122111404, 0.0000000000, 0.0000000000, 0.0094107409, 0.0051208556, 0.0285356693, 0.0361746826, -0.1040504380, -0.0203777687, -0.0693268941, -0.0444975392, -0.0641475627, -0.1976886166, -0.0637304468, 0.0122927320, 0.0159675718, -0.0692175132, -0.0766369942, -0.1105509098, -0.0620856249, -0.1242150573, -0.0331493427, -0.0061990586, 0.0677153395, -0.0373897854, 0.0233328973, 0.0105010132, 0.0003254517, 0.0143600226, 0.0015857940, 0.0000000000, 0.0000000000, 0.0064986639, -0.0337943231, -0.1140931460, 0.1315169883, -0.0341292799, -0.0149619061, 0.0342459269, 0.0475541519, -0.0222330773, -0.0463158587, -0.0111563160, -0.0254050027, 0.0044054088, -0.0429043964, -0.0017113800, -0.1719178139, -0.0263030802, -0.1946757788, -0.1097065901, -0.0523301250, -0.1074625772, -0.0976959725, 0.0785889068, -0.0083852132, -0.0095500861, 0.0103823737, 0.0000000000, 0.0014177190, -0.0019326713, 0.0287014554, 0.0038433590, -0.0220863188, 0.0399582410, -0.0343985602, 0.0743275600, -0.0316135576, 0.0390478485, 0.0493557348, 0.0451972187, -0.0445087709, 0.0265186340, -0.0427308301, 0.0165418302, 0.0221637793, -0.0151595786, 0.0306925088, -0.0560905868, 0.0229246793, 0.0102970701, -0.1167928486, 0.0019439290, -0.0391159609, -0.0874688099, 0.0183297513, 0.0085733937, 0.0073825219, -0.0116794843, 0.0084676151, -0.0031797190, -0.0046247596, 0.0269314281, 0.0344579440, -0.0479064981, 0.0655423077, 0.0597017011, 0.0069683923, 0.0489504365, 0.0350092173, -0.0423879620, -0.0160904782, -0.0035079335, 0.0343200951, 0.0414160424, -0.0209654973, 0.0470711324, 0.0715695017, -0.0112100504, 0.0207251511, 0.0147790584, -0.0240151082, 0.0017500893, -0.0098964212, -0.0133141469, 0.0193070121, 0.0207755884, 0.0136514458, -0.0063642932, 0.0017071493, -0.0116886473, 0.1131685777, 0.0477432027, -0.0075971761, 0.0329877483, 0.0450591185, 0.0633312391, -0.0083027138, 0.0057071505, 0.0575742682, 0.0153261596, 0.0100726569, 0.0393844638, 0.0268079436, 0.0403670940, -0.0465941560, 0.0110302666, 0.0436191269, -0.0484749673, -0.0331013944, -0.0185345148, 0.0104419034, 0.0165096870, 0.0113606141, -0.0139046726, 0.0061581481, 0.0387248080, 0.0146522994, 0.0016634031, -0.0362006450, 0.0350561351, 0.0448118522, -0.0176724608, -0.0077796478, 0.1411883749, -0.0133829747, 0.0953924443, 0.0082100758, 0.0180135560, 0.0879206477, 0.0426715916, 0.0119828437, -0.0260321517, 0.0530910601, -0.0185107683, 0.0199617769, 0.0222675355, -0.0339533369, -0.1800485476, 0.0557033461, 0.0156242975, -0.0122039584, 0.0365127559, -0.0205746135, 0.0275282554, 0.0199851409, 0.0148360801, 0.0439565497, -0.0261663636, 0.0347639076, -0.0022311993, -0.0256783667, -0.0610965093, 0.1412532763, -0.0103737168, 0.0688228021, 0.1048562668, 0.0100544633, 0.0159302336, 0.0483882969, 0.0677375974, 0.0043566711, 0.1021865474, -0.0223771288, -0.0396411617, 0.0326379648, -0.0066004256, 0.0202290317, 0.0087267667, -0.0202238232, 0.0372046293, -0.0040974461, -0.0044453111, 0.0194512604, -0.0048069765, 0.0115466915, -0.0880191991, 0.0070255391, 0.0546373616, 0.0562904804, -0.0511887671, 0.0750284761, 0.0506097396, 0.0518389040, 0.0053187141, 0.0345806686, 0.0475492126, 0.0078034339, 0.0433333892, -0.0207481118, 0.0315426801, -0.0431180423, 0.0479306725, -0.0589310359, -0.0380947850, -0.0992519677, 0.0052725750, 0.1013212681, 0.0098945480, 0.0208276500, 0.0242784569, 0.0069609966, -0.0721732077, 0.0524752785, 0.0911885926, -0.0247107212, -0.0979170361, -0.0038678353, -0.0609309575, -0.1503436897, -0.0765040482, 0.0625158060, 0.0620439989, 0.0389415946, 0.0453758580, 0.0026739559, -0.0193505153, -0.0757698657, 0.0487942139, -0.0574257152, -0.1068878750, 0.0086456833, -0.0257937474, 0.1027116656, 0.0004203824, -0.0559100474, 0.0043150425, 0.0186868073, -0.0164856050, -0.0036995764, 0.0614834893, -0.0546727226, -0.0883184140, -0.0376665302, 0.0087410610, -0.0025280862, -0.1212383015, -0.1197746294, -0.1239835513, -0.0128583933, -0.0070556176, 0.0026009024, -0.0693102332, -0.1091790270, 0.0096546560, 0.0537792485, 0.0102643357, -0.0743726471, 0.0738625122, -0.0202538977, 0.0380242308, -0.1599491282, 0.0015187262, 0.0279783677, 0.0347406750, -0.0211575016, 0.0203948876, 0.0301195071, -0.0886190243, 0.0258034988, 0.0415875424, -0.0444622848, -0.0355560470, -0.0702855774, -0.1302762801, -0.0377041460, -0.0607486442, -0.0325019756, 0.0126903269, -0.0213049520, 0.0377431467, 0.1691787657, 0.0204887570, -0.0336451561, 0.0185232416, 0.0653898979, -0.0346606009, 0.0048256570, -0.1434388239, 0.0191186593, 0.0034355740, -0.0031472946, -0.0249716785, 0.0492859542, -0.0297603999, -0.0168597188, -0.0007677249, -0.0499616714, -0.0800205848, -0.0450869626, -0.0322533646, -0.0594142830, -0.0446311559, -0.0874920933, -0.0477882835, 0.0211487611, -0.0730362387, 0.0986319503, 0.0374416968, -0.0484993012, 0.0556157152, 0.0505296933, 0.0765161814, 0.0159674159, -0.0199976729, -0.0216721980, -0.0131321556, 0.0100475871, 0.0104539786, -0.0017482345, -0.0269744991, -0.0522263704, 0.0176958150, -0.0539317245, -0.0081940993, 0.0822864965, -0.0572121340, 0.0335287499, -0.0403825573, -0.1647011896, 0.0289237115, -0.0113312379, -0.0914161352, 0.0444605065, 0.0072868575, 0.0180193238, -0.0038298141, 0.0505922005, 0.0321810278, 0.0079641982, -0.0128821280, -0.0143416836, 0.0026999350, -0.0831992846, -0.0600462272, -0.0075564505, 0.0000000000, 0.0059403013, -0.0217024254, 0.0330960846, -0.0004130184, 0.0223964079, 0.0161136123, -0.0708134225, -0.0500527301, 0.0213334577, -0.1722073075, 0.0456921376, -0.0168465420, -0.0371245136, 0.0038005291, 0.0038270388, -0.0286283813, 0.0194758791, 0.0743755684, -0.0560729618, 0.0846194593, -0.0742659895, -0.0099065977, -0.0238514867, 0.0385334167, 0.0081341389, 0.0203358542, -0.0129184539, 0.0030473132, -0.0000227027, 0.0086754679, -0.0314346430, -0.0258021736, 0.1019390125, -0.1705676228, 0.0355641682, -0.0013623392, -0.0740351983, -0.0292592025, 0.0042219877, -0.0555461705, 0.0701985727, -0.0322776384, -0.0405154017, -0.0149783771, -0.0695024108, 0.0368479517, -0.0267266814, -0.1024224572, 0.0445108599, 0.0162798229, -0.0188283051, -0.1036664757, -0.0439820398, 0.0298746936, 0.0153601552, -0.0043766110, 0.0228908894, 0.0489030129, 0.0322860705, 0.1661675270, -0.1580985815, -0.0047112667, -0.1488623883, 0.0177137218, -0.0270745764, -0.1366910103, 0.0254381552, 0.0372084726, -0.0281567045, 0.0372147672, -0.0487290918, -0.0501461828, -0.0002286457, -0.1048756355, 0.0006501590, 0.0622002300, -0.0686046469, -0.0007809592, -0.2169153437, 0.1198107868, -0.0564477463, 0.0100582362, -0.0156614812, 0.0000000000, 0.0012588766, -0.0008100892, -0.1007177407, -0.3328224648, -0.0445910628, -0.0513153451, -0.2179198140, 0.0443952291, -0.1437204529, 0.0165149706, -0.0162964764, 0.0367677421, -0.0558276892, 0.0112774911, 0.0038017644, -0.0970426327, -0.0977698763, -0.1522418161, -0.0326009366, -0.2070292646, 0.0381518702, -0.1320247639, -0.0067696813, 0.0488776432, -0.0319359800, 0.0142177923, 0.0062310489, 0.0019508619, 0.0168874592, -0.0115147401, -0.0290475784, 0.1149747367, 0.1120925276, -0.1421192438, -0.0613708167, -0.0008116626, -0.0610503370, -0.0009100874, -0.0014276072, -0.0017913373, -0.0049303803, -0.0485000951, -0.0437715653, -0.0039117172, -0.0442659581, 0.0265419396, -0.1506856386, -0.0364452845, -0.0937532265, -0.0009060304, -0.0939136087, -0.0439458513, 0.0824729536, -0.0078497126, 0.0069905599, 0.0019508634, -0.0016328090, 0.0207169455, -0.0844656127, -0.1349426981, 0.0607494595, -0.0816877956, 0.0388370901, 0.0567008556, -0.0080033374, -0.0086798806, -0.0926630388, 0.0388173128, -0.0408292010, -0.0030023900, 0.0419206891, 0.0045220083, -0.0432447829, -0.0468522229, 0.0974205851, -0.0399957009, 0.0495792706, -0.0321298245, -0.0613908630, -0.0271590878, 0.0057706879, -0.0395418952, 0.0069905614, 0.0000000000, 0.0000000000, 0.0051051099, -0.0935569659, 0.0597227732, -0.0355135715, -0.0171664670, 0.0664356706, -0.1453652683, -0.0190722902, -0.0353712876, -0.0356863680, -0.0440231288, -0.0318043534, -0.0376925378, -0.0820001360, -0.0138725188, -0.0260099218, -0.0340947245, -0.1005820172, -0.0114372565, -0.1415801981, 0.0033729080, -0.0834478300, 0.0049463929, 0.0224052069, 0.0055913838, 0.0000000000, 0.0000000000, 0.0000000000, 0.0040541645, -0.0092609113, -0.0177127248, 0.0426405873, 0.0298623978, 0.0047500376, 0.0278459944, -0.0279583958, -0.0063358269, -0.0265453866, -0.0639296287, 0.0196035739, -0.0125556458, 0.0273135650, -0.0203633505, 0.0318059144, -0.0561975330, 0.0228847461, 0.0183788909, -0.0277088195, 0.0140134361, -0.0059446579, -0.0087927082, -0.0107101358, 0.0117980220, 0.0000000000, 0.0000000000, 0.0000000000, -0.0187871381, 0.0145527346, 0.0105029784, -0.0126144925, -0.0110229842, -0.0046599893, 0.0004748813, 0.0243007165, -0.0153985899, 0.0371431370, 0.0346777801, -0.0041865921, 0.0136452148, 0.0034172380, -0.0076549927, -0.0028434902, 0.0072300886, -0.0271742047, -0.0027375683, 0.0172054450, -0.0056909927, -0.0481730594, 0.0106887868, -0.0008693476, 0.0102546764, 0.0000000000, 0.0000000000, 0.0000000000, 0.0000000000, 0.0021463989, -0.0029907411, -0.0127578589, -0.0004722612, 0.0005187183, 0.0006146886, 0.0010842531, 0.0048467088, -0.0040293927, -0.0166657846, 0.0101465057, -0.0094412447, 0.0151250348, 0.0056827450, 0.0005529300, 0.0104861150, 0.0136119335, -0.0224175558, 0.0029851233, 0.0136402072, -0.0000366001, -0.0578864419, 0.0049272475, 0.0000000000, 0.0000000000, 0.0000000000, 0.0000000000, 0.0000000000, 0.0000000000, 0.0128603607, 0.0143133786, -0.0029104615, -0.0053765539, 0.0077564955, -0.0137307572, 0.0166544001, -0.0055740659, -0.0060185489, 0.0331595028, -0.0056842754, 0.0196885289, -0.0151849489, 0.0434863769, -0.0072215627, 0.0174462789, -0.0109451599, 0.0157805374, -0.0101409740, 0.0210297911, 0.0000000000, 0.0000000000, 0.0000000000, 0.0000000000},
